<?xml version="1.0"?>
<opencv_storage>
<opencv_ml_svm>
  <format>3</format>
  <svmType>C_SVC</svmType>
  <kernel>
    <type>LINEAR</type></kernel>
  <C>1.</C>
  <term_criteria><iterations>1000</iterations></term_criteria>
  <var_count>8100</var_count>
  <class_count>2</class_count>
  <class_labels type_id="opencv-matrix">
    <rows>2</rows>
    <cols>1</cols>
    <dt>i</dt>
    <data>
      -1 1</data></class_labels>
  <sv_total>1</sv_total>
  <support_vectors>
    <_>
      7.90649618e-04 -2.03589356e-04 -4.84394579e-04 1.40915543e-03
      -4.62070806e-04 1.74463796e-03 2.81991134e-03 3.06523871e-03
      2.71706493e-03 1.59155310e-03 -1.43804922e-04 -1.22849026e-03
      1.63224433e-03 -3.21966410e-03 2.97721941e-03 2.32421630e-03
      2.38454342e-03 2.97361147e-03 -1.20296807e-03 8.83168716e-04
      5.99879248e-04 1.95784890e-03 -5.04107622e-04 3.77024733e-03
      5.46688726e-03 1.58778136e-03 9.11667827e-04 -1.13854930e-03
      -2.22605595e-04 -1.16511516e-03 -1.21775805e-03 -4.46582120e-03
      -8.93866527e-05 1.84536143e-03 6.88105007e-04 9.51810100e-04
      2.40693640e-04 -2.23131239e-04 2.35340488e-03 1.34266051e-03
      2.97101680e-03 3.19946837e-03 3.64728109e-03 3.77168367e-03
      1.65338675e-03 -1.86218438e-03 -3.15941009e-03 5.68551986e-05
      -6.05120324e-04 3.15086753e-03 -1.03077153e-03 3.58940405e-03
      2.39309366e-03 -4.08764172e-04 7.11049652e-04 -8.48690281e-04
      -1.34889118e-03 1.03086920e-03 -1.85982394e-03 -1.18122880e-04
      6.29859976e-04 2.50880350e-03 1.82370550e-03 -1.06838171e-03
      4.41035285e-04 -1.31722505e-03 1.26715819e-03 8.63770896e-04
      -3.74172674e-03 -2.52453261e-03 -2.15823972e-03 -1.37004571e-03
      -1.92639441e-03 -2.47349520e-03 1.87812885e-03 -1.49506028e-03
      1.58577331e-03 -7.96167529e-04 1.22539920e-03 -1.20400265e-03
      -3.56163859e-04 2.19763396e-03 4.45567025e-03 2.93788966e-03
      -2.34210351e-03 -1.35627913e-03 -1.40504201e-03 -1.35510322e-03
      -2.17690272e-03 -2.45468481e-03 -5.17835550e-04 2.06088484e-03
      2.88875285e-03 -4.49189160e-04 3.58527286e-05 -4.89494437e-03
      -3.59876384e-03 -4.36815014e-03 -1.67191715e-03 4.31240303e-03
      3.05714435e-03 6.36562938e-03 -6.48750356e-05 -2.63176556e-03
      -7.11929658e-03 -1.16519909e-03 -1.26231334e-03 -1.39632483e-03
      5.58168627e-03 6.01231121e-03 2.54638167e-03 -1.60469417e-03
      1.35924574e-03 -8.35042039e-04 -1.15307944e-03 2.69188476e-03
      -8.59977386e-04 1.10712228e-03 4.20761574e-03 2.12249137e-03
      -1.52696250e-03 3.49491066e-03 -6.90632500e-04 4.92589061e-06
      3.32333235e-04 1.09910128e-04 4.92777675e-04 6.65640109e-04
      5.49078966e-03 -5.52562880e-04 1.25326833e-03 -3.97127960e-03
      -1.65292958e-03 -5.52839076e-04 1.12706074e-03 -2.64039787e-04
      1.14503829e-03 3.43056192e-04 -1.40089996e-03 2.09986325e-03
      2.35244137e-04 1.89641549e-04 -1.09391811e-03 -1.33941649e-03
      1.16485544e-03 3.84713081e-03 2.34050211e-03 3.73510265e-04
      3.09240608e-03 -5.81742555e-04 -1.66736206e-03 -4.85261407e-04
      -1.24597482e-05 -1.85518620e-05 2.63045891e-03 1.84469367e-03
      1.60865730e-03 5.17278025e-03 5.74935135e-03 1.91683357e-03
      1.65477919e-03 -2.67111557e-03 -1.52591313e-03 1.54265400e-03
      1.36619166e-03 -3.81714170e-04 1.40303513e-03 1.84887112e-03
      -1.38210366e-03 -1.81303616e-03 -2.87914905e-03 1.79796931e-04
      3.60938511e-03 4.53395909e-03 9.67262371e-04 -5.15902939e-04
      1.68545486e-03 -2.82464665e-03 -3.95419635e-03 -5.32103702e-03
      -1.15236966e-03 1.90905412e-03 1.05399301e-03 1.87311217e-03
      2.64367973e-03 4.50329622e-03 5.66140190e-03 9.48809320e-04
      -4.12226887e-03 -3.07881250e-03 -1.48727253e-04 2.30886252e-03
      1.33804360e-03 -4.43583442e-04 1.01523648e-03 4.01754119e-03
      -4.70838771e-04 -3.25421197e-03 3.61438002e-03 7.00328918e-03
      4.01888136e-03 -1.24447735e-03 -2.53582071e-03 1.41152515e-04
      -1.23020425e-03 -5.26509481e-03 -4.22880892e-03 4.75232769e-03
      7.17181247e-03 3.43528786e-03 -2.41668266e-03 -3.49812699e-03
      -4.42242343e-03 1.00997835e-03 -2.12231325e-03 -3.36594065e-03
      -5.49571309e-03 -2.37856735e-03 1.60582154e-03 -6.21526851e-04
      -1.54287601e-03 -2.31353406e-04 7.25940452e-04 -1.27488060e-03
      -4.96668881e-03 -2.14508874e-03 -1.98762165e-03 2.08718609e-03
      2.21423293e-03 2.18280562e-04 -1.69599149e-03 -3.55420774e-03
      -2.65180646e-03 -4.41667251e-03 4.00362490e-03 3.77327693e-03
      1.33654824e-03 -4.88939183e-03 -6.23570336e-03 -3.96135356e-03
      2.84384051e-03 3.94534273e-03 -4.28311614e-04 5.77709777e-03
      -1.33553031e-03 -3.71199596e-04 -2.44843261e-03 -2.49130535e-03
      -1.93917390e-03 1.96349132e-03 1.63607916e-03 2.44838116e-03
      -3.94641329e-03 -1.74153969e-03 -3.48216388e-03 5.82941575e-04
      1.38670986e-03 -2.18121146e-04 -1.15146313e-03 2.67576506e-05
      -1.35001971e-03 -6.72727497e-03 -3.80736170e-03 -6.10782625e-03
      -2.78326753e-03 -6.90169807e-04 2.78733001e-04 3.45679163e-03
      1.17829896e-03 -1.33858842e-03 3.55379982e-03 -4.86033270e-04
      -4.32124967e-03 -3.57016642e-03 1.11977773e-04 -1.63739396e-03
      8.84050969e-04 -3.22437787e-04 4.94730333e-03 2.29167147e-03
      3.55674210e-03 -4.46500722e-03 -5.78744337e-03 -1.28127530e-03
      -3.66161461e-03 2.07889755e-03 2.60730414e-03 4.42495476e-03
      -2.85766297e-03 -4.10277862e-03 -3.42197111e-03 -3.16500990e-03
      -1.99294952e-03 1.69442233e-03 4.53852955e-03 3.27115995e-03
      1.12176880e-04 1.21041306e-03 3.73031199e-03 2.79962667e-03
      -2.59662373e-03 -2.32508383e-03 1.16910331e-03 1.76410354e-03
      -1.01791741e-03 -3.50842893e-04 -1.33637618e-03 -2.17226497e-03
      1.58624840e-03 -3.53384088e-03 2.23870389e-04 -2.39500706e-03
      3.50322062e-03 6.50989264e-03 3.84472939e-03 -3.48778465e-03
      -5.43839904e-03 -3.02710780e-03 -1.44927751e-03 1.59509527e-03
      1.04860961e-03 5.48252510e-03 5.86206513e-03 -3.72863869e-04
      5.13095502e-03 6.61859754e-03 5.96243329e-03 3.11271840e-04
      -5.00853930e-04 1.62376906e-04 1.66293664e-03 -2.40222947e-03
      1.96584291e-03 2.30719708e-03 7.17889110e-04 3.30076623e-03
      1.80372573e-03 1.98751120e-04 4.37945680e-04 9.68681270e-05
      -1.88784290e-03 3.52705875e-03 -1.80992810e-03 -4.32351045e-03
      -1.92182488e-03 1.38756284e-03 4.85507585e-03 2.04520184e-03
      7.83002842e-03 2.82777147e-03 4.33264719e-03 -2.20782193e-03
      -5.97135862e-03 -4.69908025e-03 -4.64221695e-03 1.66590756e-03
      1.54762354e-03 4.42596991e-03 -1.62223034e-04 1.77881587e-03
      1.27165671e-03 -4.38387855e-04 2.11775163e-03 2.05313298e-03
      5.11492835e-03 2.05654511e-03 1.77836267e-03 1.17158564e-03
      4.43245377e-03 2.50681047e-03 5.80135442e-04 4.86047333e-03
      1.51826884e-03 5.40656969e-03 3.73844727e-04 2.18011293e-04
      1.47792499e-03 3.76461819e-03 -2.00362573e-03 -7.80246640e-03
      -1.84499833e-03 -3.13525903e-03 3.35024088e-03 1.80137425e-03
      4.02206229e-03 -3.10764438e-03 4.45869431e-04 -2.22174940e-03
      -2.86218757e-03 1.54589920e-03 -1.63845962e-03 1.70574163e-03
      -1.56270398e-03 -1.53121713e-03 -3.63472244e-03 1.06345001e-03
      3.92989768e-03 9.56876378e-04 3.52981640e-03 -1.86460617e-04
      1.54459034e-03 -1.41499855e-03 -2.36076349e-03 -2.07328750e-03
      1.25306123e-03 3.94933205e-03 1.85120548e-03 1.61015417e-03
      -9.94226662e-04 3.08269076e-03 5.30144025e-04 6.09430624e-03
      1.77464343e-03 1.96203333e-03 3.92846484e-03 -1.22764963e-03
      2.53438996e-03 -7.26750679e-03 -3.42171988e-03 -5.26334951e-03
      -7.01328646e-03 -6.10490935e-03 1.39340351e-03 4.86354390e-03
      4.93548997e-03 5.05122542e-03 -1.80126610e-03 5.39854227e-04
      1.19071768e-03 4.81384061e-03 3.69706261e-03 2.29597790e-03
      -5.84476977e-04 9.12165502e-04 -2.10594246e-03 3.53919429e-04
      -7.32128974e-04 -2.83865142e-03 1.54795940e-03 1.06137113e-05
      2.23142401e-04 1.21396629e-03 -2.53138191e-04 7.21735356e-04
      4.09359392e-03 -1.12070949e-04 -1.88801682e-03 -1.55122904e-03
      -2.00263970e-03 1.97621319e-03 -1.47098943e-03 3.82691412e-03
      1.32114964e-03 -1.17441139e-03 8.25811643e-04 6.30322204e-04
      -1.69621152e-03 -2.71703326e-03 -1.25944114e-03 -9.92025831e-04
      4.00667544e-03 1.41303940e-03 3.92067060e-03 1.42414065e-03
      8.42416426e-04 -1.67299877e-03 -5.59469499e-03 -1.58877578e-03
      6.27195230e-04 -9.44012892e-04 1.51482015e-03 1.59858598e-03
      -1.23093324e-03 4.04542167e-04 9.30860231e-04 -2.19678832e-03
      2.14404915e-03 3.73627758e-04 2.70073325e-03 1.42780758e-04
      3.65191576e-04 6.60581107e-04 6.09414186e-04 4.12232417e-04
      -2.11283332e-03 -7.80603033e-04 -8.87782371e-04 1.44582905e-03
      4.55453381e-04 1.98445981e-03 -1.41256105e-03 -2.98057171e-03
      2.40030276e-04 6.11384748e-04 4.16394469e-04 5.14756066e-05
      5.06838434e-04 -2.89292261e-03 -3.57368583e-04 2.87335395e-04
      -6.21765433e-03 1.41047710e-03 3.70284449e-03 -8.75718251e-04
      8.84013367e-04 -1.82452239e-03 -3.20293126e-03 -1.38504547e-03
      1.36039907e-03 -9.78712691e-04 1.31563982e-03 2.70782737e-04
      6.59632555e-04 2.74881232e-03 -1.73942884e-03 -3.59644787e-03
      -3.67251062e-03 1.56662241e-03 -1.03711107e-04 -2.28613126e-03
      -7.16200913e-04 2.92486651e-03 6.66231848e-04 -1.96690741e-03
      -1.15500775e-03 -6.95527880e-04 1.87798473e-03 -3.26572848e-03
      8.76790204e-04 3.06288851e-03 -3.74263880e-04 2.09764019e-03
      4.41291195e-04 -1.34221709e-03 -1.91809819e-03 1.28993974e-03
      -8.80228181e-04 -6.05971960e-04 -8.76413425e-04 3.96265968e-04
      5.89210482e-04 2.16886378e-03 3.15936562e-03 1.46179798e-03
      4.47562337e-03 2.54378770e-03 4.13802918e-03 2.83300225e-03
      1.57090730e-03 1.16038730e-03 2.23537837e-03 3.18439817e-03
      -3.03111970e-03 -3.53463832e-03 -3.33442981e-03 -1.80280325e-03
      5.22765273e-04 7.58678420e-04 4.18882864e-03 2.98828422e-03
      4.10103879e-04 -1.94409816e-03 3.26621276e-03 3.64989787e-03
      4.87145316e-03 5.02225943e-03 3.71522037e-03 3.49474908e-03
      2.73215398e-03 -2.11461959e-03 -7.06738513e-03 -2.93866894e-03
      -6.01973664e-03 -3.08532640e-03 9.64629813e-04 2.20155530e-03
      1.47168699e-03 1.80144655e-03 -5.74569043e-04 -1.87453430e-03
      -4.78304084e-03 -1.56702672e-03 -7.04433350e-03 -2.20907852e-03
      7.94958323e-04 -2.45259580e-04 6.95382478e-03 3.88326938e-03
      2.18606065e-03 7.52184121e-03 -9.21841362e-04 -5.52584510e-03
      -4.56943037e-03 -1.70935935e-03 4.98024572e-04 2.23415461e-03
      2.16352451e-03 -4.38080402e-03 -3.34663643e-03 -3.29031912e-03
      -6.31323736e-03 -5.60379354e-03 -3.29324335e-04 -8.80273932e-04
      3.36957304e-03 5.74311940e-03 4.85952338e-03 6.04063505e-03
      1.48280710e-03 -5.20311762e-03 -3.72971967e-03 9.88232132e-05
      2.06033513e-03 5.73492749e-03 4.36292542e-03 2.79364525e-03
      7.98775069e-03 -1.83961901e-03 -2.45478516e-03 -2.13635736e-03
      1.51452783e-03 3.47160827e-03 5.59513050e-04 1.24417956e-03
      1.77117938e-03 5.27240755e-03 -4.25625360e-03 -1.45035551e-03
      -1.72698507e-04 3.85739654e-03 2.58063083e-03 2.96704029e-03
      1.73855835e-04 2.34841439e-03 4.70237574e-03 -9.06561851e-04
      -1.61197816e-03 -1.86756704e-04 2.35291664e-03 1.38618611e-03
      -5.97755599e-04 -3.30040161e-03 -2.38149124e-03 3.99621855e-03
      -4.43504611e-03 -1.38194102e-03 2.46219788e-05 1.44188089e-04
      1.90578878e-03 1.20460207e-03 4.79649939e-03 9.82097583e-04
      3.93563882e-03 -4.47553024e-03 -2.93336180e-03 -5.94672398e-04
      2.48400355e-03 1.22481934e-03 3.55286687e-03 4.08376940e-03
      8.36182386e-04 2.94874911e-03 -4.87542432e-03 -3.08877719e-03
      -3.25749232e-03 1.37043663e-03 1.04784919e-03 -3.14919185e-03
      3.72762530e-04 2.60260142e-03 2.87606101e-03 -4.78295004e-03
      -4.15629381e-03 -1.71644276e-03 1.22148753e-03 1.26366981e-03
      -5.92350843e-04 2.32168823e-03 3.44475545e-03 2.40693311e-03
      -6.61620963e-03 -5.79818664e-03 -6.20012544e-03 4.27332823e-04
      7.35617126e-04 1.75955147e-03 1.50007580e-03 -1.36645045e-03
      3.05875874e-04 -1.61393895e-03 -2.74890568e-03 -3.84867354e-03
      -1.07425603e-03 4.75378428e-03 7.43609248e-03 2.38241954e-03
      4.79234266e-04 -8.53233505e-04 -1.98835088e-03 -5.54262428e-03
      -5.37382672e-03 -2.10343348e-03 2.10795552e-03 2.56868312e-03
      3.37824714e-03 1.54445108e-04 8.33777827e-04 -4.62609204e-03
      -7.37847155e-03 -7.63057871e-03 -1.68775232e-03 4.77828551e-03
      6.97106123e-03 2.78380979e-03 -2.45971634e-04 -6.40110229e-04
      -1.78248028e-03 -5.37146628e-03 -4.24527470e-03 9.08733462e-04
      5.64366532e-03 8.11276771e-03 3.49721313e-03 -1.51662563e-03
      -1.95613084e-03 -2.55771703e-03 -4.78318054e-03 -2.79457215e-03
      -7.46002479e-05 5.26097370e-03 9.49320477e-03 4.28841868e-03
      -6.38376316e-03 -4.21996042e-03 -5.88907814e-03 -3.66719789e-03
      -9.06287052e-04 -6.52845891e-04 4.76788543e-03 7.06601702e-03
      3.70183238e-03 -2.52956175e-04 -4.95607383e-04 -1.74430443e-03
      -6.05477160e-03 -1.90580823e-03 1.31019077e-03 2.11445056e-03
      8.45856685e-03 5.57550741e-03 -2.65090587e-03 -1.85683626e-03
      -4.90908744e-03 -7.30165932e-03 -3.91258718e-03 -1.90492091e-03
      7.76960282e-03 3.99673544e-03 1.40206958e-03 -4.02207440e-03
      -4.26867232e-03 -4.62219911e-03 -1.36641786e-03 -2.28585163e-03
      1.95163779e-03 8.08960292e-03 -1.68471772e-03 -2.32942961e-03
      -3.67802521e-03 -2.26433529e-03 -1.49200496e-03 2.24489928e-03
      -6.06625050e-04 4.16029291e-03 2.65975809e-03 7.29078194e-03
      4.02381783e-03 1.57421295e-04 -1.00738648e-03 -6.81953086e-03
      -6.07027393e-03 -8.23632255e-03 -1.84834923e-03 3.69162241e-04
      2.69677350e-03 -1.17908849e-03 2.45640078e-03 -4.51044005e-04
      -2.81196390e-03 -1.32963585e-03 -5.69803175e-03 1.91220708e-04
      4.82835574e-03 3.69098037e-04 -5.21045877e-03 -4.57772287e-03
      -7.10772758e-04 -2.69916869e-04 5.13097551e-03 4.69243107e-03
      2.83774082e-03 2.10486166e-03 1.74432131e-03 -6.10092189e-03
      -2.39175302e-03 9.07151960e-04 -9.39467864e-04 2.75234296e-03
      4.77203261e-03 3.17550474e-03 1.84368269e-04 3.07630544e-04
      -5.91759942e-03 -2.29960517e-03 -1.52291649e-03 -7.80586968e-04
      -9.84006620e-05 3.04371607e-03 9.88402520e-04 -7.33471592e-04
      -8.82148650e-03 -1.18153570e-02 -5.99077391e-03 -1.83210114e-03
      -2.36267713e-03 2.11709109e-03 8.80447309e-03 2.19881837e-03
      3.30970925e-03 -1.92220544e-03 -2.15499080e-03 -2.17324914e-03
      5.97808184e-03 8.03600706e-05 4.80992440e-03 7.29164016e-03
      6.06625481e-03 -2.20696907e-03 -6.68993918e-03 -3.86699475e-03
      -3.08200740e-03 6.46032253e-03 1.35762955e-03 9.21002403e-03
      1.02376714e-02 5.49548632e-03 4.52528894e-03 -1.33679444e-02
      -9.80216451e-03 -6.94316626e-03 2.67208763e-03 -1.02004840e-03
      6.66526519e-03 9.82954632e-03 7.56142521e-03 5.99759980e-04
      -1.08287679e-02 -1.20722866e-02 -8.67166277e-03 1.47647911e-03
      1.28732855e-03 8.80120508e-03 1.11411111e-02 9.45475046e-03
      -5.54003171e-04 -3.53843928e-03 -3.78728914e-03 -7.89269165e-04
      6.62918622e-03 2.76883459e-03 9.58639197e-03 7.14192586e-03
      4.81798640e-03 -6.96700998e-04 -7.14475848e-03 -4.17544739e-03
      -5.33344783e-03 5.93175599e-03 3.10637243e-03 7.40939379e-03
      4.34398931e-03 3.29436967e-03 3.07391258e-03 -5.61268814e-03
      -8.59342236e-03 -5.42465318e-03 4.72320756e-03 3.96047020e-03
      8.82053375e-03 6.96915854e-03 4.92180977e-03 1.88504311e-03
      -5.79461828e-03 -5.72356721e-03 -4.29700036e-03 3.54477926e-03
      1.57273607e-03 7.06344284e-03 5.35892835e-03 4.88816574e-03
      -1.14767544e-03 -8.89770035e-03 -5.44709340e-03 -3.49729741e-03
      3.75887356e-03 2.55197426e-03 5.07795671e-03 7.14650960e-04
      3.01480712e-03 1.09675177e-03 -7.78228918e-04 9.66501364e-04
      -1.84867869e-03 2.09135539e-03 1.68398314e-03 4.35528765e-03
      1.37236470e-03 4.81843995e-03 1.52901874e-03 -6.70757284e-03
      -2.67606555e-03 -2.02223170e-03 2.74679251e-03 -1.37978001e-03
      2.77561950e-03 7.13838905e-04 3.16844927e-03 4.63588070e-03
      1.32121518e-03 5.47859445e-03 5.75902923e-05 2.31114472e-03
      1.87188643e-03 4.18193778e-03 -1.46174198e-03 4.54137055e-03
      2.88818800e-03 6.87837834e-04 2.15410721e-03 -7.98013993e-03
      -5.43960696e-03 -1.62918842e-03 3.74522351e-04 -1.07545231e-03
      1.64902059e-03 5.20794606e-03 4.14792402e-03 4.61778929e-03
      1.30263134e-03 5.40440343e-03 3.16208601e-03 1.67544920e-03
      3.09169036e-03 1.69880455e-03 1.77183922e-03 6.80025492e-04
      5.08369505e-03 -4.87669604e-03 -5.46200434e-03 8.54627928e-04
      2.05913000e-03 2.07353296e-05 1.46954192e-03 5.38879819e-03
      2.54806783e-03 5.88814076e-03 7.79977627e-03 5.94490720e-03
      2.93367915e-03 1.63176900e-03 1.64441974e-03 2.52475636e-03
      5.35806721e-05 2.25966866e-03 2.34815525e-03 2.18334119e-03
      3.63065652e-03 4.88498714e-03 -2.72981613e-03 -7.49648141e-04
      -3.95913143e-03 3.60534523e-06 2.09472049e-03 1.50604290e-03
      7.71526655e-04 1.01356267e-03 2.53799069e-03 -9.85155697e-04
      -4.21679346e-03 -1.63453643e-03 -7.04534294e-04 -9.18873178e-04
      1.90417806e-03 3.58098582e-03 4.30967193e-04 -1.61696982e-04
      -2.42636027e-03 -2.74218386e-03 -4.10706596e-03 1.43080577e-03
      1.57376726e-05 -1.64083915e-03 -2.00821133e-03 -2.66902917e-03
      -2.94479774e-03 -2.42530438e-03 -2.66586384e-03 -3.88009881e-04
      -2.38434644e-04 3.67682165e-04 9.43335705e-04 -1.15719042e-03
      -1.97577151e-03 -1.66636962e-03 2.21084990e-03 2.26293079e-04
      -2.48024997e-04 2.28385237e-04 -2.71625607e-03 1.05297123e-03
      2.59445078e-04 -7.65875215e-04 -2.67392374e-03 5.83465304e-03
      4.45742905e-03 7.72724743e-04 2.11332506e-03 -1.03558251e-03
      -2.17511435e-03 -5.06813405e-03 -1.38017198e-03 -3.15904664e-03
      9.48510424e-04 7.23170291e-04 1.05773110e-03 4.47830622e-04
      -3.00735002e-03 1.51693728e-03 8.93582692e-05 7.90598860e-04
      3.49753816e-03 2.79820943e-03 -5.81772416e-04 8.74317018e-04
      -6.65282190e-04 -2.53766915e-03 -9.08871065e-04 -6.53613606e-05
      -1.11404178e-03 5.75743616e-05 3.53768282e-03 3.82614508e-03
      -6.84772735e-04 5.75960614e-04 8.21864465e-04 -1.61154754e-03
      2.01450754e-03 6.94185728e-04 1.54503866e-03 -8.60247819e-05
      6.14473363e-04 -6.35268399e-04 -1.47403590e-03 -3.67045985e-03
      -8.43779126e-04 -4.59358591e-04 -1.97018630e-06 3.90720787e-03
      8.12663115e-04 8.25701864e-04 -1.14673411e-03 -3.70874710e-04
      2.85539264e-03 -6.50926377e-05 2.00182968e-03 3.98784148e-04
      -2.86035123e-04 6.21537853e-04 -6.47311506e-04 -1.75213977e-03
      4.97045554e-03 -1.06865447e-03 -1.72452303e-03 -1.91907433e-03
      4.79686866e-03 5.57912840e-03 5.46983536e-03 4.67387401e-03
      5.45926066e-03 1.88570656e-03 -1.39360933e-03 -5.03307302e-03
      -5.88158425e-03 -1.05479057e-03 -4.25068196e-04 3.88470548e-03
      4.11504367e-03 2.65103439e-03 4.17218823e-03 -3.12167755e-03
      -3.87764792e-03 -1.71629502e-03 3.74014024e-03 5.10428008e-03
      1.55263243e-03 2.14800308e-03 4.50641336e-03 8.07961682e-04
      -6.02544891e-03 -4.63567534e-03 -5.54007711e-03 -5.05189120e-04
      1.25533156e-03 -1.19560189e-03 5.75875165e-04 2.15556985e-03
      -6.69695903e-04 1.75014406e-03 1.16094889e-03 -2.84841028e-03
      -3.16646416e-03 -4.71945014e-03 -1.62011350e-03 -4.66177985e-03
      -4.46742779e-04 6.13036946e-07 6.24558015e-04 3.98072135e-03
      6.83080917e-03 5.66925528e-03 -1.50755176e-03 -3.86381987e-03
      -5.96415577e-03 7.19805132e-04 -9.93175199e-04 -3.07844020e-04
      5.02896437e-04 1.04096218e-03 7.88041798e-04 -4.20074724e-03
      -4.26174188e-03 -7.16815563e-03 -9.65823885e-04 8.81972548e-04
      7.10937567e-03 5.37628075e-03 6.90680789e-03 4.45710914e-03
      -1.64574408e-03 -2.65405653e-03 -6.06003776e-03 -1.41192821e-03
      3.53331305e-03 2.36723339e-03 2.10615457e-03 3.66118154e-03
      8.81455746e-03 2.74400716e-03 4.35846654e-04 -1.65591584e-04
      3.36691434e-03 1.55799068e-03 -5.16363326e-03 -5.25700254e-03
      -3.35280434e-03 3.79884802e-03 -6.86898828e-04 9.40217578e-04
      2.88907485e-03 3.34166572e-03 2.93219415e-03 -6.61198690e-04
      -2.62993184e-04 1.81927695e-03 1.49246363e-03 1.01648225e-03
      1.94848434e-03 1.77871110e-03 2.95014284e-03 -1.02347869e-03
      -6.20292686e-03 -3.89169343e-03 -3.16273747e-03 3.58002639e-04
      -3.50043201e-03 1.93156849e-03 1.90118805e-03 6.46824017e-04
      1.38386188e-03 -3.39537300e-03 -5.26321492e-05 1.13103760e-03
      6.70886459e-03 -4.69152903e-04 -8.25185154e-04 2.07461021e-03
      3.17686680e-03 -2.28334032e-03 1.55135605e-03 6.69575995e-03
      3.17340950e-03 7.45766656e-03 -1.57015806e-03 -9.44362255e-04
      -3.92354745e-03 -1.14401616e-03 -7.14769471e-04 -1.69425027e-03
      6.58802455e-04 2.52759550e-03 6.66123256e-03 -1.37882959e-03
      -2.13369820e-03 1.91036859e-04 3.94702802e-05 -3.76898935e-03
      3.00796726e-03 4.71000280e-03 1.99194415e-03 6.94099581e-03
      -5.51270321e-03 -6.01747446e-03 -5.61951660e-03 -1.26554654e-03
      1.60093943e-03 4.26815869e-03 9.58265178e-03 2.76315771e-03
      6.69341069e-03 -2.71797762e-04 -2.10497575e-03 -4.47597541e-03
      1.00265129e-03 7.10322754e-03 8.20158701e-03 1.07023558e-02
      3.50150233e-03 5.75621612e-03 3.56647943e-04 -2.63245380e-03
      -3.55538144e-03 6.80034107e-04 -2.53895111e-03 3.29894898e-03
      6.02869783e-03 1.74597465e-03 6.69335388e-03 -4.47252439e-03
      -6.34500198e-03 -7.28493417e-03 -7.23365927e-04 -4.49987390e-04
      3.89977917e-03 9.86616965e-03 2.37416266e-03 5.10008354e-03
      -2.87509011e-03 -6.42561447e-03 -4.81960224e-03 -7.19273696e-04
      4.79112426e-03 5.43690240e-03 6.42295135e-03 2.00526649e-03
      5.72653813e-03 -9.47545108e-04 -4.58534295e-03 -1.80629047e-03
      -1.05738186e-03 4.46201488e-03 8.74045677e-03 6.90567493e-03
      2.84909201e-03 5.23914071e-03 -2.36237072e-03 -3.94629361e-03
      -5.60207991e-04 1.14504003e-03 1.85905999e-04 8.65606964e-03
      9.03682038e-03 2.30355025e-03 5.57544222e-03 -3.92732164e-03
      -6.27059117e-03 -4.79415711e-03 -1.26398623e-03 -1.41243299e-03
      1.17243417e-02 5.85849117e-03 2.64146505e-03 6.12532161e-03
      -2.89343181e-03 -2.79283547e-03 -5.16301440e-03 9.05195251e-04
      1.66215212e-03 8.72017816e-03 5.39416913e-03 1.15505513e-03
      2.91083078e-03 -3.00532114e-03 -2.21932586e-03 -3.14775947e-03
      -1.98300439e-03 4.60801850e-04 5.92558598e-03 4.13686689e-03
      4.64869256e-04 3.14971409e-03 -1.38474302e-03 -2.36707949e-03
      -5.98233426e-03 -1.55033165e-04 2.43588281e-03 6.05267333e-03
      1.46534154e-03 -2.98327795e-04 4.34067054e-03 -1.18241645e-03
      -2.30144896e-03 -3.45598371e-03 -2.80354516e-06 3.31733166e-03
      2.13644025e-03 -5.78424660e-04 4.62215598e-04 4.39404231e-03
      3.00239244e-05 -2.10108468e-03 -2.10852176e-03 7.37965456e-04
      1.42975454e-03 3.87926446e-03 4.15875390e-03 4.60995710e-04
      3.96164507e-03 -2.35919701e-03 -2.35554390e-03 -2.35681166e-03
      -1.27228239e-04 1.72213931e-03 -1.65929459e-03 -7.72577070e-04
      -2.88447551e-03 4.40837396e-03 -3.08111147e-03 -5.69075986e-04
      3.60974169e-04 -3.63584841e-04 3.06279957e-03 2.53012031e-03
      2.79163592e-03 3.27127916e-03 5.20401262e-03 -9.09258553e-04
      -1.48616428e-03 -1.97232328e-03 -3.15061508e-04 3.49232997e-03
      3.94710992e-03 2.68542394e-03 1.25934591e-03 4.18787077e-03
      -3.57090216e-03 -3.34693003e-03 -5.65092545e-04 -2.03809724e-03
      2.20092875e-03 -7.15761725e-03 -5.04955044e-03 -6.34742808e-03
      2.48730974e-03 -2.88264873e-03 5.67157404e-04 5.41319372e-03
      6.26119226e-03 4.57484135e-03 -7.53206713e-03 -9.37623437e-03
      -9.80847515e-03 1.87687099e-03 -9.20968130e-04 4.74572880e-03
      8.95034522e-03 8.66127387e-03 3.30347288e-03 2.30044359e-03
      2.17929599e-03 -1.90307607e-03 3.63107747e-03 -3.01432866e-03
      -1.46741990e-03 7.89243262e-04 -6.61387385e-05 6.26573106e-03
      1.54416589e-03 -1.12746772e-03 -5.46238525e-03 4.49338695e-03
      -2.70903716e-03 -1.20291937e-04 1.19453052e-03 2.02031666e-03
      4.55742236e-03 -4.84976405e-03 -1.00300396e-02 -1.02111725e-02
      2.38405843e-03 2.66146404e-03 6.08329894e-03 7.22843921e-03
      7.88338669e-03 5.92477666e-03 -7.05067394e-03 -1.05291409e-02
      -7.50457542e-03 6.24021399e-04 1.97586091e-03 4.50696750e-03
      5.69386035e-03 5.89945586e-03 7.78925978e-03 -6.09032286e-04
      -7.81669840e-03 -1.07980426e-02 3.60428728e-03 -1.14496960e-03
      1.22486567e-03 1.43407576e-03 4.34580166e-03 6.48312457e-03
      -2.66716210e-03 -6.56061620e-03 -9.69773345e-03 9.46290238e-05
      2.48921197e-03 6.55462593e-03 1.05779516e-02 9.25884768e-03
      4.28095460e-03 -6.58429042e-03 -4.31810832e-03 -5.45651792e-03
      -1.00417482e-03 -3.04490817e-03 4.38587926e-03 4.21755714e-03
      3.65275168e-03 3.51539417e-03 -1.95105548e-03 -1.18773174e-03
      -3.88110802e-03 2.60094384e-04 1.23501325e-03 3.80509789e-03
      4.31256089e-03 3.05384165e-03 2.59181648e-03 -3.83729744e-03
      -4.34227986e-03 -7.96243176e-03 -2.32271198e-03 8.99836305e-04
      6.84367679e-03 9.66958143e-03 5.55211864e-03 2.71673384e-03
      -2.88422732e-03 -3.52323102e-03 -4.02614055e-03 -2.88429181e-03
      5.86808237e-05 2.11198535e-03 7.33524468e-03 5.55000640e-03
      3.39668943e-04 -1.72643480e-03 -4.11701243e-04 -1.16885356e-04
      -4.38905973e-03 -8.05846066e-04 2.40795058e-03 4.15486656e-03
      2.29374622e-03 1.60737289e-03 -3.62224149e-04 8.42547219e-04
      4.61463304e-03 5.08609181e-03 3.67230526e-03 6.67732116e-03
      4.65666456e-03 4.02671564e-03 3.88774322e-04 -5.16962213e-03
      -4.72488627e-03 -4.16947296e-03 -9.29671689e-04 -2.14918796e-03
      1.50983222e-04 5.89192566e-03 4.23622457e-03 4.05086949e-03
      -2.63122935e-03 -3.33865453e-03 -1.52873581e-05 6.91909669e-03
      2.67925952e-03 3.49356933e-03 8.18680879e-03 7.49570644e-03
      -2.65630748e-04 -3.78768833e-04 -4.76736663e-04 4.85300756e-04
      -2.65312241e-03 -2.90099974e-03 -5.47139673e-04 5.11123915e-04
      6.76019234e-04 1.79910625e-03 6.36615790e-04 -2.02945690e-03
      -4.60634381e-03 -5.04521327e-03 -3.26061621e-03 -2.49327649e-03
      -2.29018554e-03 -8.79656116e-04 1.31258566e-03 -2.00725277e-03
      -2.67045503e-03 -2.27044313e-03 -2.09116517e-03 1.57316343e-03
      4.91444836e-04 4.59896587e-03 4.52555064e-03 1.35000248e-03
      4.02386941e-04 -4.57317889e-04 -4.33468726e-03 -7.72881508e-03
      -4.87695826e-04 2.82844901e-03 2.73824413e-03 3.06460634e-03
      1.48746266e-03 -3.89720917e-05 -3.16734798e-03 -6.01870986e-03
      -3.67604126e-03 -3.94448685e-03 -4.96620487e-04 -7.53988628e-04
      -4.94313776e-04 7.49225204e-04 -8.14835774e-04 4.96974622e-04
      -8.33261758e-04 -1.42878992e-03 8.94471654e-04 -2.10913084e-03
      -2.63689132e-03 -9.60199468e-05 3.13851004e-03 8.95809324e-04
      -1.16263039e-03 -2.64011044e-03 -4.46770433e-03 9.48034925e-04
      1.29518867e-03 6.74198556e-04 5.85540850e-03 1.48831948e-03
      1.40902936e-03 1.08802132e-03 1.90319517e-03 -2.02762056e-03
      4.17354330e-03 8.85047950e-04 1.24682707e-03 3.52530158e-03
      7.96785054e-04 -4.03827429e-03 -2.50560726e-04 -9.66903404e-04
      9.17058554e-04 3.04588117e-03 -1.57503318e-03 -1.65676267e-03
      7.42951815e-04 -1.35997380e-03 1.59380469e-03 3.42464773e-03
      1.90146687e-03 6.95350580e-04 -5.69816388e-04 1.65317068e-03
      -2.21249182e-04 -1.51977257e-03 -3.74814263e-04 -1.55002531e-03
      1.18798751e-03 -4.43641271e-04 4.76561472e-05 4.34628455e-03
      6.13867946e-04 3.74418130e-04 1.77461456e-03 -1.16007100e-03
      -1.92226621e-03 8.56242375e-04 -2.39051529e-03 1.43727346e-04
      3.84645740e-04 3.55442782e-04 8.30657664e-04 1.38322485e-03
      9.56077478e-04 -3.69940815e-03 -2.59546237e-03 6.60830003e-04
      2.37213820e-03 1.41287921e-03 -4.43441444e-04 1.43449218e-03
      2.40588142e-03 4.60485666e-04 -1.32498215e-03 -3.34817590e-03
      -2.48722592e-03 1.98982027e-03 -2.54612678e-04 -5.17952628e-03
      -4.75704856e-03 -8.21910624e-04 1.62506837e-03 -5.37688565e-03
      -5.30518452e-03 8.60198459e-04 4.39586909e-03 -2.92051729e-04
      -5.70823671e-04 -1.30838167e-03 2.20543076e-03 2.89950101e-03
      4.49826382e-03 4.08785325e-03 5.73120872e-03 4.25357791e-03
      -2.06389726e-04 -2.63462611e-03 -1.83355284e-03 -1.08369696e-03
      1.41775620e-03 5.56009402e-03 4.66778502e-03 3.46322707e-03
      3.06723965e-03 1.41704761e-04 -3.89891118e-03 -3.19480570e-03
      1.32859556e-03 4.03191894e-03 1.53521029e-03 1.82790169e-03
      6.05135108e-04 -2.92635337e-03 1.88374182e-03 -2.10971269e-03
      5.70361619e-04 3.19475867e-03 3.53065808e-03 6.84158225e-03
      6.60111709e-03 1.43557161e-04 1.63454877e-03 2.88618467e-04
      7.16962910e-04 -2.40295124e-03 3.87543067e-03 4.80513740e-03
      -5.79548022e-03 -6.79881265e-03 -9.15071648e-03 -7.27243954e-03
      6.17941900e-04 1.16298710e-04 -5.46462194e-04 3.06889717e-03
      4.52882703e-03 2.10165163e-03 -4.25946462e-04 -2.72369361e-04
      -2.78826104e-03 1.90404779e-03 3.64810787e-03 4.75877337e-03
      4.74676909e-03 2.03425903e-03 3.03619629e-04 8.58654850e-04
      -1.88190618e-03 1.30244100e-03 -2.21020030e-03 -7.89159676e-04
      -7.13338261e-04 7.44270976e-04 4.58933506e-03 7.84361677e-04
      -4.06621303e-03 -8.01425893e-03 -2.88866577e-03 1.76155835e-03
      9.31583345e-04 1.97171397e-03 3.54399765e-03 1.67786749e-03
      2.65298155e-03 2.79477914e-03 -5.02659986e-03 1.02732901e-03
      -5.62615320e-03 -3.17137036e-03 -5.15890401e-03 -1.65352563e-03
      1.63192546e-03 1.81612023e-03 6.01257849e-03 3.02826171e-03
      6.45510620e-03 -1.75564003e-03 -3.64997517e-03 -3.98072507e-03
      -5.22402581e-04 2.06530723e-03 9.31947667e-04 2.96466798e-03
      2.70471652e-03 7.24476064e-03 -6.23924565e-03 -8.91897921e-03
      -8.50890763e-03 2.08008755e-03 2.15036818e-03 -1.38968520e-03
      4.56977729e-03 4.42023622e-04 6.34295121e-03 -5.35756908e-03
      -4.58765682e-03 -8.51728860e-03 -5.25980548e-04 8.01559910e-03
      1.20697068e-02 1.46342460e-02 1.70207629e-03 4.27863840e-03
      -3.36844148e-03 -6.59515802e-03 -8.08758102e-03 2.16867612e-03
      -1.97146065e-03 -8.18403787e-04 -1.42665766e-03 7.38681934e-04
      5.90683706e-03 -5.05346060e-03 -9.52230487e-03 -7.94283301e-03
      1.52702373e-03 1.15263008e-03 5.44184260e-03 9.86459944e-03
      4.48668317e-04 4.20588674e-03 -3.89745203e-03 -8.80569872e-03
      -6.88783079e-03 4.62182984e-03 9.40868258e-03 9.89257637e-03
      1.03582889e-02 1.12001831e-03 2.34007882e-03 -4.57554264e-03
      -8.40566121e-03 -6.89102989e-03 2.48424755e-03 8.50409642e-03
      9.81214270e-03 6.97623426e-03 8.82610446e-04 2.68023578e-03
      -3.60353966e-03 -5.99204795e-03 -4.08461364e-03 4.56040120e-03
      1.58946007e-03 6.86036842e-03 6.60156598e-03 -4.56173701e-04
      6.94206916e-04 -4.24118852e-03 -8.18258151e-03 -3.78785701e-03
      1.36948132e-03 -1.85750017e-03 6.32402673e-03 2.13075778e-03
      2.30238424e-03 6.29053568e-04 -6.58359379e-03 -4.82856482e-03
      -2.87952786e-03 1.31321850e-03 -4.07226966e-04 4.06599976e-03
      -2.20283007e-04 -5.20991307e-05 -6.25912566e-04 -3.15899169e-03
      -5.41636394e-03 -2.09358148e-03 1.86795485e-04 2.75562447e-03
      1.34517074e-06 1.27339060e-03 2.43951497e-03 6.21071493e-04
      -4.51220758e-03 -3.61974468e-03 -8.02414608e-04 -1.34545995e-03
      -2.86685990e-05 1.00878312e-03 -3.48223519e-04 2.87809479e-03
      2.60858471e-03 -4.41578822e-03 -2.47569033e-03 -1.69869990e-03
      -1.91030325e-04 -2.38334364e-03 -1.10354609e-04 2.23879050e-03
      5.63960429e-03 4.42238105e-03 -2.40301990e-04 3.09875380e-04
      -3.39360465e-03 -3.35987960e-03 2.44745519e-03 -3.61157418e-03
      -2.68796488e-04 1.12980430e-03 3.54616111e-03 -2.74655572e-03
      1.19130674e-03 7.82270392e-04 9.00145606e-05 -5.36880863e-04
      -2.16051564e-03 2.82572000e-03 2.66318372e-03 1.58968905e-03
      -6.86567975e-04 3.29299038e-03 1.76504557e-03 -2.03112676e-03
      4.70330182e-04 2.89651123e-03 5.66163845e-03 6.36299001e-03
      6.18091784e-03 -2.67137220e-05 2.35745125e-03 -1.68881554e-03
      -7.87532423e-03 2.14237277e-03 6.29479717e-03 5.25109610e-03
      3.02053662e-03 3.27199441e-03 -5.81849483e-04 -6.56717643e-03
      -3.66282742e-03 -7.73987686e-03 -2.04244768e-03 4.21770895e-03
      7.73020415e-03 2.20041815e-03 6.65939925e-03 2.27185222e-03
      5.87234879e-03 4.05003130e-03 -9.28762660e-04 -2.33465689e-03
      6.39504334e-03 6.12751441e-03 3.29775765e-04 4.19024751e-03
      4.23693610e-03 4.47013974e-03 2.98022083e-03 2.69296743e-05
      2.84888130e-03 7.93477986e-03 2.90921167e-03 -4.02664082e-05
      4.49768407e-03 1.55124126e-03 -3.54217202e-03 -5.31230820e-03
      3.01557215e-04 5.36952633e-03 6.51705870e-03 3.70044634e-03
      3.37255551e-05 5.09668048e-03 1.14789931e-03 1.34162011e-03
      -5.12166135e-03 2.54714396e-03 8.83118191e-04 8.07358418e-03
      4.91818041e-03 -1.10723020e-03 3.66151077e-03 3.26865399e-03
      1.51869969e-03 -1.87744142e-03 -4.12588051e-05 5.72009943e-03
      2.83746608e-03 2.74564838e-03 -8.49111006e-04 3.75577714e-03
      -9.48723318e-05 1.72065629e-03 -5.41707966e-03 4.20226017e-03
      7.47829629e-03 4.53843968e-03 -2.16372265e-03 -3.62459337e-03
      2.90306192e-03 -1.12147303e-03 -1.53726223e-03 -2.35624774e-03
      1.64656376e-03 6.50217058e-03 9.57920856e-04 -3.25555704e-03
      -6.91617327e-03 8.34935519e-04 4.17887978e-03 3.22819268e-03
      4.78398241e-03 6.15542289e-03 5.48703503e-03 3.54362163e-03
      1.51089276e-03 -2.98919552e-03 2.66094645e-03 -3.97447497e-03
      -9.68583627e-04 -3.68541549e-03 2.91857263e-03 6.05650572e-03
      4.48718667e-03 -1.28937361e-04 -3.43935657e-03 3.60527518e-03
      3.65076354e-04 -1.77286833e-03 1.15448167e-03 2.53250799e-03
      9.84092359e-04 -2.38775206e-03 -6.13181805e-03 -6.35431753e-03
      6.32946321e-05 4.39257221e-03 5.81068685e-03 9.49488115e-03
      6.69366680e-03 3.53454612e-04 -4.80588293e-03 -5.67768188e-03
      -5.93763916e-03 3.14074126e-03 -9.61283571e-04 2.62223673e-03
      8.12776480e-03 5.69713395e-03 2.29332922e-03 -1.39497814e-03
      -6.16744673e-03 -4.10746876e-03 3.33012431e-03 1.14517205e-03
      -9.66272375e-04 2.33562198e-03 4.56282403e-03 -1.43391173e-03
      -2.35609757e-03 -4.13642311e-03 -4.37085843e-03 4.39893082e-03
      -6.54623218e-05 4.55684122e-03 7.84472935e-03 7.55901029e-03
      2.41417717e-03 -2.64136028e-03 -3.89380101e-03 -2.63957027e-03
      5.27185388e-03 -2.93628545e-03 2.88447831e-03 8.48821457e-03
      3.94947454e-03 3.36209917e-03 -3.10709677e-03 -4.60641040e-03
      -2.72723264e-03 7.24393455e-03 4.18450823e-03 4.70106257e-03
      7.29621388e-03 5.87448850e-03 -2.85374536e-03 -9.24903527e-03
      -8.09854828e-03 -6.05505751e-03 3.95295164e-03 -3.66589520e-04
      4.22562286e-03 3.70554137e-03 4.50416282e-03 -7.63008138e-04
      -8.58514197e-03 -6.52213488e-03 -6.03452837e-03 7.23462086e-03
      2.60037999e-03 3.36414413e-03 6.07848214e-03 1.52839383e-03
      2.33961851e-03 -1.71304320e-03 -2.46002642e-03 -4.61695716e-03
      8.55604711e-04 3.76697723e-03 7.23307533e-03 7.66720437e-03
      5.45311300e-03 3.03068408e-03 1.40993914e-03 1.21279596e-03
      -5.88873772e-05 -3.04682041e-03 4.71683824e-03 8.26161075e-03
      9.26586520e-03 6.47358177e-03 -2.20072898e-03 -4.15314594e-03
      -3.21880821e-03 -6.18282473e-03 3.91133176e-03 -2.50613457e-03
      -5.02379565e-03 4.43262933e-03 -4.85404767e-03 1.20288378e-03
      7.48348830e-04 1.87568774e-03 1.12313509e-03 3.81897064e-03
      3.70284426e-03 4.67631849e-04 1.70698343e-03 -2.29964918e-03
      2.08976539e-03 2.14497931e-03 -1.13463633e-04 1.15329830e-03
      -3.42034968e-03 2.09047180e-03 2.21949467e-03 4.23401827e-03
      4.31106845e-03 1.19754055e-03 7.74026674e-04 -3.38020182e-04
      1.32850150e-03 1.33807902e-04 5.15109813e-03 1.74655765e-03
      1.80448382e-03 4.01110807e-03 -4.09585983e-03 1.56239723e-03
      3.69669171e-03 1.98311359e-03 4.88518039e-04 -8.80063861e-04
      -7.37728085e-03 -3.32368328e-03 -1.70987402e-03 1.13773996e-04
      3.60440672e-03 2.94615678e-03 2.17529782e-03 2.59443070e-03
      2.29461328e-03 1.58881467e-05 3.01288767e-03 6.51723123e-04
      -1.33874931e-03 -6.43471256e-04 -2.28348668e-04 1.23328459e-03
      -6.12917589e-04 4.35077259e-03 3.71760130e-03 3.18627292e-03
      5.39469649e-04 -2.20551877e-03 -3.57723259e-03 -1.32710964e-03
      -3.71912960e-03 -4.16759343e-04 1.21771300e-03 4.48370411e-04
      1.29164744e-03 -2.63361842e-04 -3.63101158e-03 4.50917799e-03
      1.39936316e-03 1.83374248e-03 -3.23932880e-04 3.15771881e-03
      1.31872762e-03 3.79882567e-03 -3.58040351e-03 -3.13220615e-03
      2.90361070e-03 1.33589690e-03 8.99703358e-04 -4.16759343e-04
      3.62954126e-03 5.06572425e-04 4.13283444e-04 -3.88414389e-03
      1.86599256e-03 6.72317110e-04 -2.04117130e-03 -1.42822450e-03
      1.91768468e-03 4.11665911e-04 -3.57808522e-03 -3.50451400e-03
      -2.37734057e-03 2.96990434e-03 3.82654835e-03 3.34503176e-03
      1.71131489e-03 1.41865027e-03 -1.03505631e-03 -2.68986658e-03
      -1.01570541e-03 -2.62461021e-03 6.05592155e-04 5.50545100e-03
      5.71687287e-03 1.24171062e-03 2.54678144e-03 3.11210495e-03
      -2.55714316e-04 -3.17343464e-03 -2.16534059e-03 -1.65737781e-03
      1.38256198e-03 9.62818885e-05 3.35082412e-03 7.73832959e-04
      -8.34810373e-04 -1.30228163e-03 -2.65362835e-03 -5.29861171e-03
      7.18464283e-03 6.24419795e-03 3.29826376e-03 9.07236070e-04
      5.04909921e-03 1.30604139e-05 3.02212569e-03 6.65440341e-04
      5.75504219e-03 7.99881015e-03 1.71689142e-03 -5.95081225e-03
      -1.06694745e-02 -2.53893482e-03 -1.60779350e-03 -8.20188608e-04
      1.00533909e-03 5.64214448e-03 4.33175592e-03 3.73201584e-03
      2.32789945e-03 1.31659000e-03 4.10316233e-03 4.72603686e-04
      3.31920455e-03 1.56154751e-03 5.26197813e-03 3.92000005e-03
      5.00343849e-05 -2.74833571e-03 -8.20979942e-03 -3.32111173e-04
      -2.31651822e-03 -7.16321822e-03 -2.49330141e-03 2.81479652e-03
      4.26931959e-03 3.55515606e-03 -3.02379089e-03 -5.81132621e-03
      6.07098860e-04 1.61046337e-03 -1.07008067e-03 3.79828998e-04
      1.60271255e-03 2.66316137e-03 4.10354650e-03 1.32493232e-03
      -6.50757179e-03 2.70519941e-03 -1.56276475e-03 -3.12283123e-03
      -5.69756934e-03 -1.48191862e-03 2.52215471e-03 2.37240316e-03
      -1.85379642e-03 -5.71277225e-03 -2.08180700e-03 -2.22803792e-03
      -3.50177963e-03 -2.15761899e-03 -2.13770033e-03 4.64762328e-03
      6.83120219e-03 9.52589046e-03 5.66068897e-03 9.92187206e-03
      -2.83538271e-03 -3.17210285e-03 -3.06997495e-03 -2.12342548e-03
      2.69036018e-03 -2.59500463e-03 2.86293565e-03 -7.09441956e-03
      7.76179892e-04 -2.18189671e-03 -5.22557274e-03 -6.85316604e-03
      1.70081621e-04 3.13301291e-03 9.49223153e-03 9.31191258e-03
      3.29627306e-03 -1.01839902e-03 -2.36936240e-03 -8.41344614e-03
      -7.23843556e-03 6.80258032e-04 4.75122733e-03 4.94433520e-03
      4.77013178e-03 4.78309905e-03 5.05598448e-03 -2.63372110e-03
      -7.79690035e-03 -7.92212784e-03 -1.05243048e-03 1.77166366e-03
      2.05137790e-03 2.86577805e-03 2.86910823e-03 2.95742135e-03
      -2.17577023e-03 -7.94820953e-03 -4.07868158e-03 -9.33528994e-04
      3.07347230e-03 6.90069515e-03 3.52168619e-03 2.64691003e-03
      -2.59773666e-03 -3.32109397e-03 -7.11276382e-03 -5.32413693e-03
      -4.65557590e-04 1.96895376e-03 1.09996542e-03 -5.91300137e-04
      2.87921657e-03 4.70330619e-04 -2.92058475e-03 -1.99602824e-03
      -1.57058355e-03 -8.13010265e-04 1.95755769e-04 1.25493796e-03
      1.02492783e-03 2.51640030e-03 -3.49775684e-04 9.93385096e-04
      -4.25956678e-03 -3.76668060e-03 -9.12427902e-04 3.12186591e-03
      -7.16583105e-03 -6.87922258e-03 1.56516978e-03 -7.29776919e-04
      2.81119882e-03 4.14823560e-04 -6.83094957e-04 5.53387741e-04
      -1.81620859e-03 6.31929026e-04 -1.54806781e-04 2.12102570e-03
      2.55170604e-03 -4.39643580e-03 -8.02647730e-04 -2.18153466e-04
      1.25479640e-03 1.28843942e-06 -1.84493931e-03 3.74170626e-03
      6.89303852e-04 4.15533688e-03 -3.44505790e-03 2.03100382e-04
      2.77957134e-03 1.26573828e-03 1.78029411e-03 -8.32177978e-03
      -6.83403295e-03 3.03334324e-03 4.12173104e-03 -1.31066900e-03
      3.45752854e-03 1.12626457e-03 8.84734676e-04 2.75388756e-03
      -6.29284361e-04 6.98377087e-04 2.77534127e-03 5.30390767e-03
      -9.12503630e-04 1.75993470e-03 4.34458489e-03 1.89495948e-03
      -5.03260270e-03 -6.30225940e-03 -2.64728733e-04 -1.68240501e-03
      3.30894697e-03 1.11675041e-03 4.03943565e-03 4.94632544e-03
      -3.96777265e-04 -7.29715312e-03 -1.98717788e-03 4.33478504e-03
      8.92398704e-04 5.32303099e-03 3.47899273e-04 5.33363689e-03
      3.12192109e-03 -5.87284425e-03 1.93768367e-03 1.31890236e-03
      3.71693727e-03 4.34513157e-03 4.78334306e-03 1.86563248e-03
      1.86958164e-03 6.04366185e-03 2.16762209e-03 3.90873337e-03
      4.58991807e-03 3.80679197e-03 5.15275588e-03 5.54585550e-03
      7.01118493e-04 5.50619327e-03 4.44846228e-03 -1.78466947e-03
      -7.14493543e-03 3.76836583e-03 2.75409291e-03 9.90883680e-04
      5.92467748e-03 5.30808349e-04 3.57329054e-03 2.54496816e-03
      -9.77897365e-03 -6.42051781e-03 3.76300840e-03 4.92293574e-03
      1.70523324e-03 3.30546708e-03 2.75015412e-03 4.19628993e-03
      3.17284081e-04 -8.00318830e-03 1.61293359e-03 5.09191072e-03
      1.68508582e-03 2.25218572e-03 5.80053031e-03 8.78661172e-04
      5.00407955e-03 3.83981015e-03 -2.47447100e-03 7.33139532e-05
      5.87080559e-03 4.42700228e-03 4.12501860e-03 4.93543223e-03
      2.28132121e-03 4.06546518e-03 3.62748932e-03 2.30617030e-03
      3.77400371e-04 4.55613947e-03 4.19766689e-03 7.00840552e-04
      4.23606951e-03 3.28187365e-03 4.73750662e-03 -2.69135018e-03
      -3.85805196e-03 5.33217657e-03 6.28494704e-03 2.26157461e-03
      -5.66983945e-04 1.79543858e-03 -7.01834448e-03 -5.88725554e-03
      -6.74966676e-03 3.03583173e-03 1.53988274e-03 3.54541140e-03
      5.54573676e-03 2.63099163e-03 7.56659126e-03 2.45602615e-03
      5.85884601e-03 1.77021441e-03 4.70830267e-03 6.25137938e-03
      7.25660380e-03 4.86514112e-03 6.31618779e-03 4.84219333e-03
      -1.48085528e-03 -1.21286407e-03 -8.32834048e-05 2.80657527e-03
      4.57437616e-03 5.67554403e-03 2.33290624e-03 9.07562033e-04
      4.38787742e-03 -3.26011726e-03 -1.76520029e-03 1.82692462e-03
      -2.57143052e-04 3.98244523e-03 6.11430779e-03 5.21102641e-03
      9.49305831e-04 4.81868675e-03 -5.50350058e-04 -3.33427195e-03
      1.80240907e-03 1.85916288e-04 6.40747091e-03 6.75831223e-03
      4.35437681e-03 6.25864090e-03 1.23532291e-03 -3.38998716e-03
      -2.11988436e-03 -4.78725473e-04 3.50665883e-03 3.63906892e-03
      2.89100152e-03 3.67633975e-03 2.99046072e-03 2.02550343e-03
      1.05877081e-03 -2.46565999e-03 -6.21462241e-04 3.37692886e-03
      3.28858499e-03 4.04302264e-03 5.32424601e-04 -1.17102021e-03
      5.41818375e-03 -1.98780699e-03 -4.83126706e-03 -2.89919460e-03
      1.99626037e-03 1.95553806e-03 -3.62706109e-04 -3.93932359e-03
      -2.29487836e-04 6.13441179e-03 -1.11760583e-03 3.76752752e-04
      2.72519095e-03 4.41167038e-03 3.80402664e-03 5.61080920e-03
      2.73903622e-03 2.06508604e-03 4.22224542e-03 4.62950207e-04
      -1.65219221e-03 -2.86749611e-03 3.33381840e-03 4.13792394e-03
      5.45297051e-03 4.58917907e-03 4.03764891e-03 5.11483848e-03
      -2.42035161e-03 -6.21593790e-05 -3.90611030e-03 3.14081041e-03
      -1.44008233e-03 -6.63765287e-03 -8.21518712e-03 -4.76321951e-03
      3.81681602e-03 1.93017433e-04 4.89177881e-03 3.88662913e-03
      2.94668297e-03 -2.60458887e-03 -8.04461911e-03 -5.32191107e-03
      -6.11743005e-03 4.35169134e-03 3.52433464e-03 3.02418321e-03
      5.53885568e-03 7.53516390e-04 -4.67308302e-04 5.08583675e-04
      3.99141293e-03 1.16251188e-03 3.55156488e-03 -2.41607847e-03
      1.24977028e-03 8.68416857e-04 1.03397283e-03 -4.13111970e-03
      -3.84558830e-03 -2.12178519e-03 -3.87197710e-03 4.17166064e-03
      4.97633591e-03 5.09465672e-03 6.16536429e-03 -1.65215752e-03
      -2.37718006e-04 -3.43556097e-03 -1.84653839e-03 -2.58530816e-03
      3.17081716e-03 1.73083227e-03 -1.21665129e-03 4.15883819e-03
      -3.40626604e-04 2.74712034e-03 4.03383274e-05 1.39850914e-03
      5.97238599e-04 7.18043325e-03 1.88606407e-03 1.73012388e-03
      1.67633756e-04 1.19283935e-03 -5.29998494e-03 -7.16559449e-03
      -4.20214981e-03 -1.55720313e-03 4.60530212e-03 2.09599989e-03
      2.83697830e-03 6.11178286e-04 -5.52834361e-04 -7.45054916e-04
      -3.69247166e-03 -4.97151748e-04 3.20157246e-03 5.53118205e-03
      2.54199305e-03 -7.09095795e-04 -1.66484457e-03 -1.91344926e-03
      3.08854110e-03 1.75723864e-03 2.97926040e-03 3.68907140e-03
      7.39486236e-03 -1.50060491e-03 -5.72854234e-03 -2.86002341e-03
      -1.46878872e-03 4.13884362e-03 4.47866041e-03 4.59869951e-03
      5.44463377e-03 5.50105190e-03 1.46247551e-03 -1.36000419e-03
      1.25850376e-03 3.28425039e-03 -1.11296936e-03 -5.70421864e-04
      4.73998400e-04 2.82595516e-03 1.59378175e-03 -4.95215878e-03
      -3.71918501e-03 -7.29856314e-03 -2.66476325e-03 2.23958329e-03
      4.96526295e-03 3.88772157e-03 1.83450337e-03 4.67093050e-04
      -1.92682003e-03 -3.65192140e-03 -9.44140658e-04 3.68577661e-03
      6.24865497e-05 6.80700317e-03 4.95886942e-03 3.26970615e-03
      3.69740278e-03 -2.14541637e-04 -1.29271357e-03 -1.84233603e-03
      -1.88152934e-03 2.13759695e-03 6.33319188e-03 7.77206989e-03
      4.49843472e-03 5.08113857e-03 1.36023317e-03 5.16314758e-04
      1.16892124e-03 1.34490512e-03 1.09618159e-04 3.48538905e-03
      4.55167051e-03 -3.49398004e-04 -1.55718869e-03 -8.66763759e-03
      -7.61902751e-03 -6.75499253e-03 -5.41389175e-03 3.85509594e-03
      8.07725731e-03 4.33063740e-03 2.52623064e-03 3.56317498e-03
      -4.48614731e-03 -2.83882301e-03 -2.74518924e-03 -2.02671671e-03
      -2.87879701e-03 -4.68403392e-04 3.68279568e-03 5.99267241e-03
      4.98159975e-03 1.43720431e-03 1.09863095e-03 -1.26956357e-03
      -4.73575026e-04 -4.96912701e-03 1.63975928e-03 9.14597604e-03
      5.81944082e-03 1.93606771e-03 -1.36386103e-03 3.10439756e-03
      -2.93791876e-03 -2.89427442e-03 -4.28809738e-03 -6.16846886e-03
      1.01560296e-03 1.62726315e-03 1.78594119e-03 2.58384913e-04
      1.58794306e-03 -1.33454998e-03 -1.26045640e-03 -7.98254088e-03
      -4.74248221e-03 3.45494202e-03 1.01688493e-03 7.17270887e-04
      8.57175764e-05 2.99541536e-03 -5.48174232e-03 -4.85252729e-03
      1.87746494e-03 2.34975503e-03 7.34734349e-03 6.06677542e-03
      3.77824577e-03 1.47723686e-03 1.96633441e-03 1.52583307e-05
      1.67598983e-03 2.07096827e-03 6.49291615e-04 5.84066520e-03
      -3.02340952e-03 -9.72030859e-04 -2.19441042e-03 -1.20961682e-04
      -1.91526755e-03 -3.90099944e-04 -1.77538750e-04 -5.42078691e-04
      7.80261029e-03 6.41231565e-03 3.01856361e-03 3.00433167e-04
      2.91911885e-03 -2.06609326e-03 -1.73829927e-03 1.70075509e-03
      1.82224228e-03 4.47842851e-03 -2.05418095e-03 1.37662597e-03
      -4.74305358e-03 1.06282730e-03 -2.65297364e-03 -2.60200095e-03
      8.89010495e-04 3.98352835e-03 2.56383582e-03 -5.71406865e-03
      -8.95612780e-03 -1.43449183e-03 -9.56432719e-04 -2.14236928e-03
      -2.78236112e-03 2.89723370e-03 3.95835331e-03 9.49595589e-03
      9.75396484e-03 1.03531247e-02 -2.50447099e-03 -5.27095236e-03
      -4.73991362e-03 -2.34691845e-03 1.44315767e-04 5.65842027e-03
      8.08333047e-03 -2.73829722e-03 -3.95228388e-03 -5.48519101e-03
      -1.20366039e-03 -4.02542623e-03 -4.78848023e-03 2.20934767e-03
      4.71462728e-03 1.12056145e-02 1.18069341e-02 7.59765739e-03
      2.13118517e-04 -5.79330930e-03 -5.27899573e-03 -3.03765992e-03
      1.91457605e-03 8.92606971e-04 2.76999758e-03 5.51713351e-03
      6.07549399e-03 -2.20838725e-03 -6.56009512e-03 -7.11641600e-03
      -1.96501077e-03 -1.38158852e-03 -1.72994239e-03 7.75038090e-04
      -7.45692814e-04 4.71166975e-04 1.35920045e-03 -3.84072331e-03
      -4.53401171e-03 -1.62796152e-03 1.30995747e-03 -1.15676271e-03
      2.33483341e-04 1.44395174e-03 2.09806138e-03 -5.92709170e-04
      -4.40037949e-03 -5.77594573e-03 -8.27496406e-04 7.84510805e-04
      -1.99861638e-03 -5.34334406e-03 -4.55321884e-03 -5.78619307e-04
      3.91896954e-03 2.13319575e-03 -2.79491511e-03 -3.21348125e-05
      7.92071049e-04 -6.90228899e-06 -3.15587455e-03 3.97438358e-04
      6.86513085e-04 4.93212091e-03 -1.21791428e-03 5.41690970e-04
      9.73790826e-04 2.49747443e-03 -4.73954435e-03 -7.33898347e-03
      3.99238896e-03 2.70852237e-03 7.33359577e-03 3.91216250e-03
      3.53553728e-03 3.18015320e-03 4.50765295e-03 2.79784115e-04
      -6.40646275e-03 -5.39913122e-03 1.71302920e-04 4.74391971e-03
      3.36167170e-03 2.84683215e-03 3.62898782e-03 3.42648732e-03
      9.04810906e-04 1.03396829e-03 3.25616682e-03 5.12945605e-03
      6.02429127e-03 3.45496088e-03 2.64133443e-03 6.22075563e-03
      1.49329903e-03 -7.04195863e-03 -4.67118435e-03 1.81749626e-03
      4.21547331e-03 3.30077251e-04 2.13814434e-03 -9.22865467e-04
      1.26796938e-03 2.04305095e-03 1.33696024e-03 -2.07198039e-03
      3.09572346e-03 1.97995012e-03 -2.62784981e-03 -1.91444578e-03
      -2.33854953e-04 7.83487922e-04 -1.10552623e-03 -2.13401089e-03
      -5.63280308e-04 2.92336172e-03 2.97267013e-03 3.50861810e-04
      -6.22615102e-04 -3.59362566e-05 2.86469376e-03 -1.50202343e-03
      7.06805731e-04 -2.78218329e-04 4.05010115e-03 -6.71110989e-04
      -5.06979646e-03 -1.46453385e-03 8.51482211e-04 1.40567508e-03
      -1.73726364e-03 -1.35808345e-03 3.84188112e-04 6.65564416e-03
      9.08636022e-04 3.44416185e-05 -1.65442866e-03 -1.32412231e-03
      2.55586201e-04 -6.41112914e-04 -1.20537682e-03 5.67976967e-05
      5.87806618e-03 1.34344492e-03 3.36501142e-03 3.26475012e-03
      -8.17223918e-05 -5.10392012e-03 -1.25417090e-03 2.71600811e-03
      -2.78341497e-04 5.50257834e-03 1.03881559e-03 -2.02132901e-03
      -7.21700189e-06 -1.97178917e-03 3.04518326e-04 1.76545500e-03
      1.39669760e-03 1.32284802e-03 5.20916423e-03 1.56392460e-03
      9.81502119e-04 1.23197737e-03 2.40339944e-03 1.77070720e-03
      -3.74698523e-03 2.59919674e-03 1.32455816e-03 8.58081505e-04
      1.58488925e-03 2.60037580e-03 5.38686337e-03 3.01285367e-03
      -6.49827952e-03 -5.54680545e-03 3.20842909e-03 2.36566970e-03
      -5.97562466e-04 3.00501264e-03 -1.25196530e-04 2.41367472e-03
      2.22089293e-04 -5.79360873e-03 1.63365446e-03 2.16180063e-03
      3.13724624e-03 3.05894203e-03 2.57355184e-03 5.00074588e-04
      2.69998028e-03 2.55784183e-03 1.77586591e-03 1.28452387e-03
      2.90311896e-03 3.05718533e-03 -6.73127768e-04 3.48676299e-03
      -1.85792695e-03 2.27770070e-03 2.03751703e-03 4.94880624e-05
      -4.32196259e-03 -1.35058025e-03 1.76419842e-03 -1.48881949e-03
      4.22082143e-03 7.57128990e-04 5.32268721e-04 -3.72981629e-03
      -2.05859076e-03 2.81130942e-03 3.47483857e-03 1.44700450e-03
      1.19678734e-03 2.80136103e-03 3.77032935e-04 5.21408219e-04
      -2.07839836e-03 -1.22184560e-04 6.64667576e-04 3.74099519e-03
      2.73965276e-03 1.05925417e-03 2.28172471e-03 -1.45641970e-04
      5.98293555e-04 1.74577843e-04 -1.16963836e-03 3.32748354e-03
      2.94998288e-03 8.07486358e-04 2.63172179e-03 3.38019081e-03
      1.48089998e-03 1.47284460e-04 -1.21775724e-03 -1.03398447e-03
      5.62328240e-03 6.37445273e-03 3.25551280e-03 4.46937513e-03
      -3.59876826e-03 -1.78804330e-03 1.08185704e-04 1.49996986e-03
      5.26039570e-04 4.03425610e-03 4.34879446e-03 3.89295816e-03
      3.38575663e-03 -1.66666543e-03 -8.55135906e-04 -1.21411879e-03
      -9.69341432e-04 3.17300810e-03 5.16734459e-03 4.90262266e-03
      2.60843383e-03 2.68528261e-03 -5.48154581e-03 1.35975366e-03
      1.67051342e-03 4.55223162e-05 6.77003176e-04 4.56332602e-03
      6.81201788e-03 6.17063418e-03 -3.32926400e-03 -2.62026233e-03
      2.43055052e-03 2.61660106e-03 1.12015940e-03 2.29559862e-03
      3.43796005e-03 3.84481414e-03 2.42298446e-03 1.10084901e-03
      1.62557059e-03 -2.12633656e-03 -3.48286005e-03 -1.16840343e-03
      4.24398715e-03 3.47277313e-03 3.80840991e-03 5.54537447e-03
      3.57618998e-03 3.16501292e-03 -3.69247142e-03 8.00963375e-04
      -2.46797851e-03 3.42304772e-03 4.32552164e-03 4.75159334e-03
      4.64010332e-03 -2.85560917e-03 3.54634319e-03 1.82617619e-03
      -2.73496844e-04 6.66202803e-04 4.64576250e-03 1.94166054e-03
      1.87161099e-03 3.88399512e-03 2.47508264e-03 3.06233483e-06
      -2.08737748e-03 -1.84298225e-03 -2.88904388e-03 1.02223552e-04
      1.09003321e-03 8.07515346e-04 7.72986934e-03 5.85624995e-03
      4.62258188e-03 -3.78345628e-03 -2.03080429e-03 1.80977269e-03
      2.09606579e-03 -2.54769926e-03 -4.65219328e-03 3.10788793e-03
      -1.25031767e-03 7.05207698e-03 3.65615985e-03 4.15144628e-03
      3.46520357e-03 -2.35172105e-03 3.24351760e-03 2.38957372e-03
      6.68222876e-03 5.00019733e-03 3.19328555e-03 -5.64625137e-04
      5.41795416e-05 -2.34734820e-04 1.84540567e-03 -1.10632589e-03
      -3.23315663e-03 3.39707220e-03 -3.06806830e-03 4.13215626e-03
      -2.25812267e-03 2.41233749e-04 2.67532677e-03 -3.46268993e-04
      -6.64564827e-03 -9.54699609e-03 -6.37438754e-03 -1.56253052e-03
      5.59281372e-03 6.41887635e-03 7.42349168e-03 1.15115277e-03
      -3.34583712e-03 -3.43009597e-03 -6.33942895e-03 -1.73064414e-03
      1.81785703e-03 7.29806023e-03 6.60062674e-03 2.32351152e-03
      -1.99077418e-03 7.82517134e-04 -4.70504025e-03 -7.46804383e-03
      -4.57071420e-03 -2.70294282e-03 7.77040515e-03 4.77487361e-03
      8.08455888e-03 -7.12213339e-04 -2.53906357e-03 -2.85748811e-03
      -4.26033372e-03 -2.42214324e-03 -2.14958726e-03 7.12457532e-03
      6.41156128e-03 5.64957457e-03 8.09519901e-04 3.66135821e-04
      1.71150861e-03 1.52051786e-03 6.09404501e-03 1.07027288e-03
      5.65490546e-03 1.55650859e-03 -3.55059165e-03 -4.30794759e-03
      2.39634421e-03 3.02111194e-03 4.82839532e-03 5.63427107e-03
      -3.95530195e-04 2.60880846e-03 -3.85565148e-03 2.97226939e-06
      3.39253922e-04 2.01300695e-03 -5.00348942e-05 -2.48669880e-03
      2.04065605e-03 -4.59261006e-03 5.30238263e-03 1.84768124e-03
      4.47203871e-03 2.60128244e-03 1.80923834e-03 5.33301733e-04
      -2.99858535e-03 1.56497862e-03 -5.58622507e-03 5.43589797e-03
      -1.18721172e-03 5.37120458e-03 -9.45373613e-04 1.87664223e-03
      4.17078892e-03 5.90268988e-03 7.76523817e-03 -4.27786843e-04
      2.20957934e-03 -6.93629310e-03 3.65955778e-03 9.50296584e-04
      2.32563098e-03 6.31425343e-03 7.28979427e-03 9.07378271e-03
      2.69171339e-03 6.97187986e-03 -1.85810553e-03 8.60144442e-04
      -2.94464728e-04 3.18969763e-03 1.60181269e-04 -1.27467676e-03
      2.82983901e-03 -5.50476182e-03 5.63555211e-03 -4.51932661e-03
      2.72820995e-04 -4.85741999e-03 2.58791773e-03 2.53468496e-03
      4.67736833e-03 7.38678966e-03 3.04244203e-03 4.40845545e-03
      -1.14254630e-03 -4.16986924e-03 -5.46015101e-03 -1.38312695e-03
      -2.45933700e-03 -4.16652020e-03 5.03612508e-04 5.02074417e-03
      4.67311544e-03 2.96148821e-03 1.96468877e-03 -1.12694805e-04
      -2.64483388e-03 -4.43455763e-03 -2.96271290e-03 -1.61500229e-03
      1.55106559e-03 1.89206237e-03 2.37323111e-03 3.33226426e-03
      -8.67589202e-04 -3.78536666e-03 -6.14570593e-03 -1.62348629e-03
      -2.76077830e-04 4.11930587e-03 5.42934565e-03 4.41872049e-03
      1.25014747e-03 2.71667359e-05 -6.10432960e-03 -7.92319328e-03
      -6.80489233e-03 -6.13071118e-03 -4.08874033e-03 4.90934448e-03
      7.09669618e-03 3.58758192e-03 1.54860620e-03 -4.29425063e-03
      2.04939090e-04 7.35921843e-04 2.95233703e-03 5.94517542e-03
      7.00789643e-03 -4.38042800e-04 2.16256268e-03 -3.97347054e-03
      -2.79253186e-03 1.04117207e-03 -2.60514265e-04 3.61829135e-03
      2.76402896e-03 5.51486062e-03 -5.15388604e-03 -2.60755629e-03
      -6.75015943e-03 -3.83848860e-03 1.64257479e-03 -3.37863527e-03
      5.23776340e-04 3.90416314e-03 1.05174305e-02 4.05760016e-03
      1.08909895e-04 -3.86721524e-03 9.16852077e-05 4.68506449e-04
      -2.21446832e-03 2.28719786e-03 3.62088229e-03 7.21066492e-03
      -4.91484907e-03 -9.08760168e-03 -8.53036158e-03 -2.52347556e-03
      1.25482935e-03 4.20354260e-03 7.10310228e-03 5.31294011e-03
      3.00682988e-03 -7.73997838e-03 -4.09718975e-03 -6.90257270e-03
      -4.83416440e-03 3.35735921e-03 3.80045711e-03 2.60117208e-03
      7.45262019e-03 7.30317552e-03 1.22151151e-03 -4.21798462e-03
      -4.93919151e-03 -1.65879144e-03 -1.12036396e-04 2.68962118e-03
      4.21888009e-03 6.37374679e-03 4.32981132e-03 -7.29827676e-03
      -9.24296025e-03 -4.96140821e-03 -5.17078256e-03 3.83481919e-03
      2.19271402e-03 -3.29407118e-03 -7.70196551e-04 6.23937417e-03
      2.45276117e-03 -2.35568313e-03 -2.71366234e-03 -8.31518089e-04
      1.10227498e-03 -2.98526767e-03 -4.22384683e-03 1.52297493e-03
      1.92476949e-03 2.31900439e-03 -3.30103096e-03 -3.62456799e-03
      8.29438912e-04 9.96717252e-04 -4.56247665e-03 -8.09508748e-03
      -9.80965700e-03 -3.28522734e-03 3.49000003e-03 2.86016613e-03
      1.46464480e-03 4.00800520e-04 3.94954300e-03 -2.80518318e-04
      -3.16178054e-03 -2.33754423e-03 3.16405715e-03 1.01418765e-02
      -2.21531838e-03 -1.77688303e-03 3.28378705e-03 2.87369196e-03
      -3.18466104e-03 -1.63914333e-03 -8.17631651e-03 -3.99318477e-03
      3.40766879e-03 1.34699419e-03 3.41690378e-03 3.39933811e-03
      5.73055074e-03 3.97035968e-04 -7.73351034e-03 -8.28650314e-03
      -3.05625959e-03 3.11092637e-03 3.37157538e-03 3.26249562e-03
      4.35119541e-03 4.40121954e-03 -1.26984983e-03 1.20330325e-04
      2.80406559e-03 5.23887202e-03 2.20810622e-03 1.38509297e-03
      1.59687921e-03 5.90177532e-03 4.62310482e-03 3.79115838e-04
      8.52283265e-04 -6.72729127e-03 -1.91463146e-03 8.19789828e-04
      9.14314645e-04 3.39454715e-03 5.08151576e-03 4.84000193e-03
      2.14718725e-03 5.39076224e-04 2.46709911e-03 3.82355182e-03
      1.66271086e-04 3.27024842e-03 6.57762308e-03 5.49407350e-03
      -1.49681512e-03 -6.30527223e-03 -4.11817757e-03 2.26161093e-03
      -4.95340428e-05 1.03017641e-03 3.35289551e-05 7.65378005e-04
      2.17112387e-03 4.38350748e-04 1.50196510e-03 3.45658581e-03
      1.92303758e-03 2.66722566e-03 -3.33243748e-03 -8.09189223e-04
      -2.22090501e-04 1.77670119e-03 1.16855197e-03 2.49309465e-03
      -4.49616229e-04 -6.06392918e-04 2.20144656e-03 1.85650904e-04
      3.04603414e-03 4.12257947e-03 1.06049422e-03 3.38753639e-03
      4.49986942e-03 1.71889935e-03 4.36022267e-04 3.16078030e-03
      -1.35581032e-03 -1.15793734e-03 6.55945987e-05 1.49226782e-03
      9.40020022e-04 2.90317461e-03 1.08784577e-03 1.97404367e-03
      -2.34595966e-03 -2.68105604e-03 -4.35632173e-05 -5.56970132e-04
      7.19636795e-04 1.22947025e-03 2.43491167e-03 1.96876191e-03
      2.12825532e-03 -1.93996250e-03 -1.08544237e-03 1.14252383e-03
      1.46853598e-03 1.17583794e-03 7.98820111e-04 8.27691518e-04
      1.82397559e-03 1.80644100e-03 -1.07791828e-04 -1.58057967e-03
      -3.47711099e-03 -2.23443448e-03 4.09606473e-05 -1.40308309e-03
      -2.02967232e-04 2.63145310e-03 1.07833737e-04 -1.64707447e-03
      2.33965024e-04 -2.27197423e-03 -1.71750784e-03 -1.92325853e-03
      1.18421658e-03 2.33901897e-03 2.86865840e-03 1.65501668e-03
      -1.98829803e-03 -2.05437047e-03 1.17690989e-03 -1.55126071e-03
      6.36359619e-04 -4.97260713e-04 3.42457532e-03 3.47525114e-03
      1.70353291e-04 -5.69505617e-04 -5.66093158e-03 9.21331928e-04
      -1.27258606e-03 -1.89638813e-03 -3.07957700e-04 1.82388257e-03
      1.95986778e-03 -2.10040074e-04 -1.96656981e-03 1.05420686e-03
      -4.30061373e-05 -1.96789159e-03 -1.43768883e-03 8.86576250e-04
      2.42874934e-03 -1.40191498e-03 1.30406441e-03 7.29944790e-04
      -1.19380304e-03 -5.72393707e-04 -1.96233322e-03 -1.36711227e-03
      -1.13067334e-03 5.31671382e-03 4.43424936e-03 2.41822819e-03
      8.78193241e-04 -2.69991648e-03 1.74076669e-03 7.74213055e-04
      -2.39974889e-03 9.81171732e-04 5.71670476e-03 3.22023337e-03
      1.61663233e-03 7.71198829e-04 -1.06004754e-03 -6.58239122e-04
      -9.05271503e-04 -1.72382186e-03 5.07535180e-04 2.80197221e-03
      -3.58869031e-04 4.57744056e-04 3.29302996e-03 3.91486246e-04
      1.26267748e-03 -3.02001426e-04 -6.13557117e-04 1.59727864e-03
      -3.23765504e-04 -4.33498062e-03 -6.50739949e-03 -4.06834437e-03
      4.19740658e-03 3.51111800e-03 -3.91341862e-04 -1.13802252e-03
      4.88465326e-03 8.10891483e-03 5.54342242e-03 5.69410950e-05
      -1.37543562e-03 3.25008854e-03 2.20947014e-03 -1.58862604e-04
      2.86940672e-03 4.81243385e-03 6.98791863e-03 4.14195796e-03
      -5.73890563e-03 -7.20481505e-04 2.53025745e-03 -2.70123431e-03
      -5.05438680e-03 3.34533234e-03 4.37770644e-03 4.29357123e-03
      -4.35148395e-04 -3.44125926e-03 1.05273311e-05 7.23716244e-03
      5.43146022e-03 3.21239093e-03 4.40634880e-03 6.15303451e-03
      4.87499917e-03 -2.70472490e-03 -4.62040026e-03 1.20630422e-04
      6.00695796e-03 1.05015666e-03 6.29300810e-03 8.64352286e-03
      2.95924209e-03 2.74456781e-03 2.66675465e-03 -2.89461738e-03
      4.77609364e-03 6.08257065e-03 -1.48535264e-03 -2.56886985e-03
      3.43866437e-03 3.18698492e-03 5.10834809e-03 6.31693332e-03
      3.62853636e-03 5.85184200e-04 -1.74356764e-03 -6.61647785e-03
      -6.02550292e-03 -1.01784372e-03 3.14362021e-03 3.26454011e-03
      1.70368573e-03 2.84781144e-03 5.86282415e-03 6.71427231e-03
      -1.71265600e-03 1.84736811e-04 3.28018866e-03 4.47679823e-03
      5.52960532e-03 8.41774046e-03 1.01638483e-02 1.05271640e-03
      -5.48875751e-03 -4.05508745e-03 -5.15571749e-03 -5.84858062e-04
      3.12760309e-03 7.34216720e-03 7.14635476e-03 3.19106807e-03
      4.20349883e-03 2.54761864e-04 -1.26596575e-03 -1.12989545e-03
      -6.87659776e-04 1.42167183e-03 2.81447871e-03 4.28345194e-03
      -1.15814258e-03 3.55827180e-03 -3.89764085e-03 -2.77470378e-03
      1.26483350e-03 4.12060239e-04 5.75122330e-03 8.50218534e-03
      8.73068906e-03 6.64164079e-03 3.06916027e-03 -2.84593320e-03
      4.94053180e-04 -4.09619370e-03 3.57522695e-05 3.20573407e-03
      5.75761218e-03 4.43276204e-03 5.13270970e-05 3.03715840e-03
      -2.75261374e-03 -1.08954904e-03 -3.30039696e-03 6.65782951e-04
      -5.54105779e-03 -4.98588150e-03 -2.55992403e-03 -1.31772447e-03
      7.46751577e-03 8.75673315e-04 7.81447801e-04 -2.98157660e-03
      -3.63897649e-03 -2.39513442e-03 -4.13211295e-03 -1.29073206e-03
      4.35476628e-04 5.54213766e-03 5.29945130e-03 6.93686167e-03
      2.56425748e-03 -1.16326177e-04 -4.27011587e-03 -3.35202366e-03
      -1.44235871e-03 5.07105025e-04 4.83383937e-03 1.45552575e-03
      -2.73054058e-04 -4.53185569e-03 -4.40065190e-03 -5.32080652e-03
      -4.68108105e-03 -1.45547419e-05 3.12313554e-03 5.45288017e-03
      7.61341164e-03 7.26185925e-03 2.59107701e-03 -4.79485327e-03
      -6.26577996e-04 -4.41531511e-03 -2.24723108e-03 -3.93693289e-03
      5.13005676e-03 3.27108870e-03 1.02354055e-02 4.71008848e-03
      1.63209287e-03 -2.41446294e-04 -5.95959695e-03 -3.38480901e-03
      -6.11705147e-03 3.24892160e-03 2.93160742e-03 8.74667428e-03
      5.79979212e-04 3.96680980e-06 -2.72685383e-03 -5.52539155e-03
      -2.68595200e-03 -1.98147376e-03 5.57419984e-03 5.60961710e-03
      7.65309902e-03 4.98089427e-03 8.38355336e-04 -1.32805575e-03
      -5.60815260e-03 -6.54290989e-03 -4.91587259e-03 2.46267230e-03
      5.46926493e-03 8.71241651e-03 3.66316875e-03 -3.30028561e-05
      -2.93609872e-03 -3.86886997e-03 -6.19779457e-04 -5.78926597e-03
      3.02743842e-03 4.49026003e-04 4.41350788e-03 -2.70523294e-03
      -4.44515550e-04 -6.96158910e-04 8.03897507e-04 1.34533760e-03
      6.93423382e-04 7.46922567e-04 -1.09225244e-03 -2.32348475e-03
      -5.03656687e-03 -7.65103032e-04 -5.76067343e-03 -4.65655373e-03
      -3.33515857e-03 -5.41378977e-03 2.73039588e-03 7.26714497e-03
      1.04471613e-02 7.00163469e-03 6.63042651e-04 -3.23316501e-03
      -3.06678063e-04 -5.41249523e-04 -1.51472806e-03 9.09533526e-04
      -7.99074132e-06 1.96092366e-03 2.01689522e-03 9.81030520e-04
      -4.21692571e-03 -2.76213302e-03 -1.33806921e-03 2.40341178e-03
      6.95596542e-03 1.34616590e-03 2.23277928e-03 1.49550929e-03
      -2.58579431e-03 -7.23796198e-03 -6.65142760e-03 -3.01579922e-03
      -3.66187713e-04 8.87284894e-03 5.82767231e-03 5.18179126e-03
      -1.25362270e-03 -4.54270933e-03 -2.33708788e-03 -5.05170692e-03
      -9.05256020e-04 -2.52138264e-03 5.57907904e-03 -5.46248071e-03
      4.04076371e-03 2.52466765e-03 2.53786822e-03 -6.42027194e-03
      -6.27297582e-03 -1.97889656e-03 -4.75810841e-04 9.77474358e-03
      1.33993931e-03 7.85930827e-03 3.20549961e-03 -4.47910558e-03
      -2.69035320e-03 -4.94473428e-03 -7.81246461e-04 1.58996321e-03
      1.25383297e-02 3.42172338e-03 6.84651604e-04 -3.23588355e-03
      -4.62190621e-03 -9.02711356e-04 -4.07521985e-03 -1.20587496e-03
      4.29897010e-03 8.27239640e-03 -2.51209247e-03 -4.41370672e-03
      -4.31076437e-03 -3.53248673e-03 -7.29180640e-03 -8.60061031e-03
      -6.60097285e-04 1.65158336e-03 1.57087203e-02 6.02130918e-03
      7.42917880e-03 -1.09628413e-03 -6.38404815e-03 -7.31308432e-03
      -5.34772454e-03 1.74626370e-03 -4.23792691e-04 1.15693752e-02
      1.62729737e-03 1.51102676e-03 -4.25823033e-03 -5.74259087e-03
      -2.88783829e-03 -4.51970409e-04 1.67680113e-03 5.20488666e-03
      9.12576169e-03 -4.20135912e-03 -5.60577633e-03 -1.95574318e-03
      -3.10428138e-03 2.20831903e-03 1.16970637e-04 -2.63681239e-03
      -1.24181993e-03 9.39449202e-03 -9.24890192e-05 -3.43426014e-03
      -2.98567605e-03 -8.05373304e-04 -4.73951455e-03 -1.99455628e-03
      2.41373596e-03 2.69686314e-03 9.21677519e-03 -4.50968649e-03
      -2.81628943e-03 -4.36609145e-03 -2.74367537e-03 3.41858948e-03
      -7.93927640e-04 -1.11220952e-03 2.19969521e-03 8.97847023e-03
      -1.50266837e-03 1.29113626e-03 -9.32470150e-03 1.89065977e-05
      5.84106008e-03 3.74431000e-03 8.03887320e-04 -4.50093241e-04
      5.12476685e-03 2.10408983e-03 -1.00093090e-03 5.00272552e-04
      3.86638148e-03 5.84778748e-03 4.42858972e-03 1.42022013e-03
      1.42845709e-03 -1.67102471e-03 -1.25799107e-03 1.83754298e-03
      3.11614783e-03 5.31968754e-03 4.83711250e-03 4.20917803e-03
      1.19069917e-03 1.42725348e-03 4.80669504e-03 -1.81201467e-04
      -6.08842960e-03 -1.14616239e-02 3.50068323e-03 5.46780555e-03
      6.71397476e-03 4.34229523e-03 4.99694934e-03 -1.24656549e-03
      2.10592849e-03 2.04503740e-05 3.38064996e-03 6.25555078e-03
      2.74164579e-03 2.10903119e-03 -1.14284630e-03 2.03428324e-03
      -6.36578957e-03 -4.73094964e-03 -2.32032989e-03 3.91952723e-04
      2.22119503e-03 3.67387920e-03 3.01002595e-03 2.64170842e-04
      2.86621298e-03 3.21773882e-03 1.11486448e-03 -6.35167817e-04
      2.59177689e-03 2.92814896e-03 3.43798334e-03 4.54766722e-03
      1.27842452e-03 4.69355797e-03 -5.37172100e-03 -2.16112728e-03
      -2.17610388e-03 4.76670265e-03 2.52488838e-03 4.56333347e-03
      5.03021572e-03 3.10431118e-03 5.73892053e-03 1.95490732e-03
      3.99183482e-03 3.37216607e-03 4.05573798e-03 2.19868170e-03
      1.40412338e-03 8.37863248e-04 -1.82312320e-03 -9.95693612e-04
      -2.38686742e-04 -1.75054907e-03 1.08711429e-04 -6.54971154e-06
      8.47482152e-05 2.72174715e-04 1.16457441e-03 -2.80037732e-03
      8.46663461e-05 4.45285586e-05 -1.85987819e-03 1.46348713e-04
      1.29876565e-03 -8.90999625e-04 2.21223594e-03 -1.15883551e-04
      9.88200074e-04 6.76282682e-04 -1.01871078e-03 3.18436578e-05
      1.39509022e-04 -6.34997559e-05 7.88964157e-04 -9.82878730e-04
      5.96646059e-05 9.96396528e-04 3.22871143e-04 -2.41866545e-03
      2.08500685e-04 1.78977021e-03 2.52358645e-04 2.16276472e-04
      3.12774646e-04 -8.77251034e-04 -1.07429200e-03 1.29064964e-03
      -9.40844184e-04 2.01124442e-03 -1.01624953e-03 -3.53322321e-06
      6.48020825e-04 8.03550181e-04 -1.80903124e-03 4.79446462e-04
      -1.79319258e-03 4.52282315e-04 3.01137124e-03 -1.22121477e-03
      -8.64945701e-04 3.54697084e-04 -1.56624243e-03 1.62744627e-03
      1.18077651e-03 7.30885251e-04 -7.28076964e-04 -9.55410418e-04
      -8.50939978e-05 1.49285537e-03 1.81612407e-03 -1.09385140e-03
      -1.71597814e-04 7.06193969e-04 -1.33662263e-03 2.85794400e-03
      9.50363756e-05 -1.24399969e-03 -1.12514663e-03 5.51051111e-04
      -6.15498939e-05 -2.16295361e-04 -2.18893215e-03 -2.38585449e-03
      1.82148104e-03 2.03495985e-03 6.84263825e-04 1.25823647e-03
      -5.62937988e-04 -2.07194505e-04 1.88212038e-03 -1.71481937e-04
      5.76017948e-04 2.35291570e-03 8.08115292e-04 4.34397953e-04
      1.83143723e-03 5.22395654e-04 -7.20326789e-05 -1.33644696e-03
      -9.18485690e-04 -1.88308477e-03 3.04104271e-03 7.07433093e-04
      -2.94172671e-04 -1.98335329e-05 -9.75476054e-04 -3.63589521e-03
      -3.03682336e-03 -2.47163320e-04 -1.77777477e-03 1.42839667e-03
      -1.05958851e-03 -3.67235654e-04 3.51410499e-03 1.32918241e-03
      1.24033180e-03 3.55550717e-03 1.96046359e-03 3.43235349e-03
      2.83927564e-03 2.40860018e-03 3.72270774e-03 4.04328946e-03
      2.10885121e-03 2.53254850e-03 3.37333116e-03 -6.69855159e-03
      -2.76844599e-03 9.48042143e-05 5.30227553e-03 5.94535330e-03
      3.57351312e-03 1.88329478e-03 2.18938803e-03 -1.92195491e-03
      -1.55640126e-03 5.05668856e-03 2.34947796e-03 1.90845120e-03
      4.05562483e-03 5.21973614e-03 4.77519352e-03 5.73333213e-03
      -4.42086626e-03 -5.68578672e-03 -4.58452897e-03 8.00406815e-06
      3.71142197e-03 5.06359339e-03 4.12893621e-03 6.93297666e-03
      1.69729139e-03 -9.78889759e-04 -6.74604997e-03 -7.65538774e-03
      -3.31694842e-03 3.81618529e-03 4.11816547e-03 1.73330156e-03
      2.22369749e-03 2.39456561e-03 -2.91312987e-04 -5.84107498e-03
      -6.59931637e-03 -2.23589200e-03 1.93313078e-03 -9.15965065e-05
      2.51849508e-03 4.66113072e-03 4.11924720e-03 1.98344514e-03
      -5.50027704e-03 -4.32887627e-03 1.08719070e-03 2.55886209e-03
      5.86905517e-04 1.28427090e-03 4.52141836e-03 7.04083766e-04
      4.21268167e-03 3.71204969e-03 5.63630229e-03 4.63898201e-03
      2.27651861e-03 -6.51582051e-03 -3.19149997e-03 7.64144876e-04
      3.18649388e-03 4.99549974e-03 5.02887368e-03 5.12022851e-03
      4.13283426e-03 1.92531233e-03 -9.99269891e-04 -1.83553516e-03
      1.97475008e-03 4.05644625e-03 4.88204509e-03 6.34503737e-03
      2.91113765e-03 5.31661790e-04 -4.27184580e-03 -6.06461754e-03
      -3.89736379e-03 -1.58749439e-03 3.10282339e-03 6.86545949e-03
      1.27155073e-02 5.79095585e-03 6.54213876e-03 -1.07906910e-03
      -1.42243633e-03 -2.46080989e-03 8.40944878e-04 5.21402247e-03
      4.70350450e-03 1.83088926e-03 2.48407992e-03 -1.15702371e-03
      -5.67045063e-03 -3.01274285e-03 8.59235064e-04 1.23284583e-04
      4.65157209e-03 5.69414161e-03 6.21390156e-03 3.66225885e-03
      4.87782108e-03 -1.03885855e-03 -2.11174483e-03 -1.39816117e-03
      3.06610658e-04 -1.50511076e-03 1.61990616e-03 1.97767164e-03
      4.16067953e-04 3.00407759e-03 -2.17646040e-04 -3.23911692e-04
      -8.02870665e-04 -2.13925052e-03 4.22097370e-03 2.30096208e-04
      -8.73110315e-04 2.67786882e-03 4.43696789e-03 -2.85528786e-03
      6.34115189e-04 1.49401498e-03 1.99606107e-03 -1.38679997e-03
      5.96846803e-04 3.55415599e-04 1.43744040e-03 2.52809259e-03
      -1.62803754e-03 2.67970632e-03 -7.72647560e-04 -1.18159491e-03
      -8.91595148e-03 -3.46565014e-03 -4.53233843e-05 3.50213633e-03
      6.01719040e-03 4.12026234e-03 2.52338988e-03 -2.33557518e-03
      -7.57010840e-03 -9.82616562e-03 -2.68491753e-03 1.64485350e-03
      6.26640068e-03 9.01003275e-03 1.03205387e-02 6.11763634e-03
      4.74953908e-04 -8.03372264e-03 -7.72808772e-03 -9.70208726e-04
      2.18774914e-03 6.34824345e-03 5.08207362e-03 4.79293475e-03
      4.20974102e-03 -1.80631771e-03 -3.78737156e-03 -8.01538024e-03
      -6.22749329e-04 7.77882244e-03 1.12886941e-02 1.29311662e-02
      1.08672902e-02 4.34436975e-03 -1.99796120e-03 -5.23402588e-03
      -1.06796781e-02 -6.30217185e-03 -1.79296022e-03 -6.62053586e-04
      8.21716618e-03 4.77105705e-03 4.06317879e-03 2.61012511e-03
      -3.72624910e-03 -7.27802422e-03 -7.65458541e-03 -4.14650701e-03
      -1.29323651e-03 7.88420346e-03 4.95706545e-03 4.06358158e-03
      4.56897030e-03 -7.46343867e-04 -8.78307968e-03 -4.30972222e-03
      5.27083129e-03 9.91204847e-03 1.21757193e-02 4.43652179e-03
      8.86271358e-04 9.12911055e-05 -4.33686702e-03 -3.14107421e-03
      2.05593300e-03 5.05760591e-03 6.76142517e-03 1.11836381e-02
      3.54678184e-03 3.12773045e-03 2.56426353e-03 5.77063474e-04
      -9.51440912e-03 -7.89907482e-03 -3.45689454e-03 -4.18637181e-03
      3.54212010e-03 3.14197550e-03 4.85560251e-03 3.37140216e-03
      -4.27218899e-03 -2.37292727e-03 1.62215831e-04 -5.55754965e-03
      -6.75845658e-03 7.12617999e-04 -3.01718106e-03 -5.52523124e-04
      3.13436962e-03 4.76453744e-04 -4.39565163e-03 1.15647784e-03
      -2.84165464e-04 3.97390948e-04 8.76218639e-03 2.64266762e-03
      2.44889758e-03 1.24224531e-03 -1.64983154e-03 -2.89495802e-04
      1.98406895e-04 -1.17911235e-03 -6.89993612e-04 4.57693916e-03
      -2.94812862e-03 1.32997846e-03 3.06314416e-03 2.46321550e-03
      9.73768911e-05 -3.64037976e-03 4.67036371e-05 -1.96871511e-03
      4.13888926e-03 -6.97450712e-03 2.51005474e-03 8.64289759e-04
      2.80208164e-03 -5.69287455e-03 -9.89410840e-03 -3.41193122e-03
      1.34971912e-03 9.70418565e-03 3.37648508e-03 5.56801166e-03
      3.24398885e-03 -2.54185242e-03 1.87974644e-03 -1.09611452e-03
      8.65161361e-04 3.72248981e-03 3.68610234e-03 -4.20196448e-03
      -1.15771440e-03 -4.24421998e-03 8.98234284e-05 -3.84878088e-03
      -7.02383975e-03 -2.86946422e-03 -1.46660209e-03 2.03354703e-03
      6.57107588e-03 1.95725216e-03 -2.57232040e-03 -3.97949200e-03
      -7.84773566e-03 -9.38261300e-03 -1.53829763e-03 2.22849846e-03
      1.33406445e-02 8.53114203e-03 9.04652849e-03 1.53880892e-03
      -4.65870835e-03 -9.27179400e-03 -8.01146030e-03 -2.41681933e-03
      -6.43657986e-04 9.33837891e-03 5.46740834e-03 3.82058206e-03
      -1.84930803e-03 -6.40137028e-03 -8.57115351e-03 -9.32768825e-03
      -2.67885113e-03 -7.17966352e-04 9.99343675e-03 1.11500761e-02
      6.48954324e-03 -1.61541102e-03 -3.97608755e-03 -8.77844077e-03
      -1.27166910e-02 -4.31073038e-03 -1.97767909e-03 1.40189128e-02
      1.03841042e-02 1.01370774e-02 2.29087472e-03 -3.46267922e-03
      -3.72647913e-03 -2.11109873e-03 6.26015069e-04 2.72644218e-03
      7.99478684e-03 2.13186187e-03 -2.07888102e-03 -5.58188604e-03
      -3.43157677e-03 3.47924023e-03 -1.14858185e-03 7.48105347e-04
      1.96643453e-03 7.81146856e-03 2.92517594e-03 -1.11113919e-03
      -1.14884134e-02 9.77266347e-04 -4.84507903e-03 -8.64017941e-03
      -2.12657033e-03 -7.25101563e-04 1.37776984e-02 9.52527020e-03
      9.04150587e-03 1.16551493e-03 -8.97750841e-04 1.93145766e-03
      -6.37128390e-03 4.66051308e-04 -1.81494560e-03 5.36579965e-03
      -6.54674193e-04 -3.07228212e-04 -9.16326046e-03 4.02994128e-03
      4.75041987e-03 2.46982975e-03 3.04239360e-03 -5.78651961e-04
      1.78380229e-03 4.54586651e-03 -2.62676622e-03 -5.44152642e-03
      3.25977616e-03 4.68064239e-03 5.52101433e-03 6.24633208e-03
      1.77379209e-03 -3.60097838e-05 2.67657009e-03 3.19048879e-04
      -1.32755027e-04 3.92340031e-03 4.41746181e-03 1.30898668e-03
      3.31820967e-03 1.91921473e-03 1.84816844e-03 -3.22986906e-03
      -3.14727891e-03 -6.51958119e-03 2.38612108e-03 4.78583109e-03
      6.38861256e-03 7.16584828e-03 3.19645880e-03 1.81118946e-03
      -5.20905619e-03 -1.45104213e-03 5.75435639e-04 3.25710425e-04
      3.88415623e-03 3.29401530e-03 3.41039035e-03 -1.85409922e-03
      1.51643588e-03 -2.86691659e-03 2.02082237e-03 4.09536343e-03
      2.66666501e-03 6.32983679e-03 3.55364638e-03 3.15024378e-03
      3.82538047e-03 5.77379949e-03 2.38028285e-03 6.63652690e-03
      6.47218106e-03 5.56984451e-03 -1.04901002e-04 4.84887697e-03
      4.70266864e-03 1.39558013e-03 2.37163738e-03 -1.01338541e-02
      -1.63797871e-03 1.65643147e-03 -1.11411570e-03 -6.85536477e-04
      7.04202708e-03 2.94210250e-03 1.53284695e-03 7.47822830e-03
      1.18010375e-03 5.76926686e-04 -8.08996789e-04 -1.73212134e-03
      4.87395376e-03 2.33046478e-03 2.71493057e-03 2.48939567e-03
      2.46044714e-03 3.55136907e-03 4.28551668e-03 3.03980662e-03
      4.82770940e-03 2.49651656e-03 3.88187915e-03 5.92755154e-03
      1.46588206e-03 1.56996609e-03 5.16417716e-03 6.31573563e-03
      5.24563622e-03 4.45268489e-03 -7.55872577e-03 4.17866325e-03
      2.27909675e-03 2.51901872e-03 4.89707664e-03 3.14207119e-03
      -1.91208470e-04 -7.78707163e-03 -7.52131315e-03 -8.56701937e-03
      3.72535409e-03 3.86013417e-03 2.54561100e-03 4.43374505e-03
      6.05014851e-03 6.04814338e-03 6.30318513e-03 -5.29413158e-03
      2.23190524e-03 5.87666966e-03 5.47293620e-03 1.01451261e-03
      1.16963999e-03 2.96514528e-03 4.60351305e-03 5.10340603e-03
      4.77851089e-03 2.49391235e-03 4.22663894e-03 5.24613494e-03
      -8.98175407e-04 5.38214389e-03 2.05290667e-03 2.71250750e-03
      1.88152224e-03 2.44666054e-03 -7.55523331e-03 -7.60025112e-04
      2.68011191e-03 2.53964768e-04 4.73631267e-03 3.27790366e-03
      2.74288235e-03 8.34721606e-03 -4.71337745e-03 -5.74511755e-03
      -7.41183199e-03 1.00570126e-03 -1.12242170e-03 5.11978474e-03
      1.93259539e-03 2.96431989e-03 3.65502434e-03 -5.36204129e-03
      2.21799104e-03 3.75549571e-04 3.44550889e-03 -5.90528885e-04
      7.29668513e-03 2.44189170e-03 2.09924579e-03 -4.84152901e-04
      1.94710982e-03 6.32515294e-04 -2.73947930e-03 1.83333119e-04
      1.79147685e-03 5.89630008e-03 1.28992600e-03 -3.09757525e-05
      3.19070678e-04 3.83955962e-03 -4.64763539e-03 -5.24524553e-03
      -6.87696971e-04 -1.90506026e-03 5.87982079e-03 3.37047176e-03
      4.39483905e-03 1.98514503e-03 -4.06887935e-04 -4.09214897e-03
      2.05218792e-03 -2.54351320e-03 2.84136948e-03 5.63645642e-03
      1.52406632e-03 2.43279175e-03 7.04786449e-04 1.41648692e-03
      8.99547071e-04 -3.13743483e-03 -6.65045227e-04 4.16678982e-03
      2.44751479e-03 1.87927531e-03 4.62744531e-04 4.94199165e-04
      2.95971474e-03 1.90290576e-03 -2.94566830e-03 -1.80330069e-03
      -4.28872678e-04 2.26184074e-03 3.17372079e-03 2.45848764e-03
      -2.78679399e-05 2.55944091e-03 -3.26304347e-03 3.94668488e-04
      -1.61702302e-03 5.38992649e-03 1.88516313e-03 6.12052274e-04
      -5.64691727e-04 -4.77962749e-04 2.01545292e-04 7.45525525e-04
      4.69873846e-03 2.20512110e-03 1.20724540e-03 2.81883939e-03
      2.14268710e-03 -1.47480203e-03 -3.13403085e-03 -2.09655636e-03
      6.54132513e-04 1.38413685e-03 -4.95998189e-03 -2.80687097e-03
      9.39393241e-04 -1.54016438e-04 -2.56963447e-03 -1.68281246e-03
      2.07883204e-05 -1.57589139e-03 2.89754779e-03 8.36258847e-03
      4.59676748e-03 2.76663457e-04 -1.52164209e-03 -5.82965603e-03
      -5.67847351e-03 1.77399837e-04 -1.26550870e-03 7.88184814e-03
      6.52873842e-03 -3.68173321e-04 3.60593229e-04 -1.90733187e-03
      -3.01693426e-03 -7.05727283e-03 -3.56270629e-03 -8.47948540e-04
      3.93392658e-03 2.17571761e-03 4.34037857e-03 -8.63829453e-04
      -1.86798885e-03 -1.41858705e-03 -2.65898486e-03 6.81318517e-04
      2.61514145e-03 5.28053846e-03 9.83259361e-03 6.05440047e-03
      5.74722840e-03 8.26539588e-04 -1.07677442e-04 -1.31971051e-03
      3.03262984e-03 4.70070215e-03 1.20637380e-03 8.99686362e-04
      -2.98956817e-04 -3.75694246e-03 -4.84028336e-04 1.10355986e-03
      -2.37749555e-04 1.37397263e-03 2.82855425e-03 6.02009427e-03
      -1.19267730e-03 3.21319164e-03 5.94801037e-03 3.94278346e-03
      3.46940733e-03 2.82706227e-03 3.03336908e-03 2.57325335e-03
      -2.19227141e-03 -7.72080757e-03 -1.25613241e-02 -4.52332851e-03
      6.95082499e-03 3.14320554e-03 2.40506511e-03 2.15765904e-03
      2.91341101e-03 -3.38821649e-03 -5.14662825e-03 -4.83090337e-03
      -3.40110459e-03 -7.45609635e-04 -4.52807290e-04 -1.91461551e-03
      1.10669970e-03 1.11091370e-03 1.83795550e-04 1.34934997e-03
      3.33349709e-03 3.20929801e-03 -1.91901752e-03 2.84042116e-03
      5.13162580e-04 -5.49781485e-04 1.39072037e-03 -2.46640714e-03
      -5.62297739e-03 -8.71395133e-03 -1.67180621e-03 5.44734392e-03
      1.26920862e-03 1.62849529e-03 3.52017721e-03 5.05391276e-03
      7.12564448e-03 9.76542849e-03 9.01531149e-03 6.24243589e-03
      2.37242831e-03 1.69080435e-04 1.18524488e-03 1.38656690e-03
      -8.21214542e-03 -2.26493785e-03 -1.67745841e-03 1.27722940e-03
      3.15776700e-03 4.00600315e-04 2.15755077e-03 -3.25992308e-03
      -1.03396904e-02 -6.67586690e-03 3.70576163e-03 6.34490978e-03
      1.08980080e-02 8.50004889e-03 7.51078688e-03 2.16652593e-03
      -3.11607844e-03 -7.87321571e-03 1.18572579e-03 7.06526591e-03
      7.84055889e-03 8.36386997e-03 4.32607997e-03 -6.06888963e-04
      -3.14718066e-03 -5.01406100e-03 -6.77177124e-03 3.59107601e-03
      8.51928815e-03 6.50214357e-03 9.30585805e-03 8.44106544e-03
      5.93969459e-03 1.06013496e-04 -4.52635856e-03 -5.91545785e-03
      -6.95791678e-04 1.14928652e-03 5.19613735e-03 7.69415125e-03
      5.23472810e-03 4.04942594e-03 -6.82048849e-04 -1.78398553e-03
      -8.25864542e-03 -2.39384826e-03 9.77869611e-04 5.20484475e-03
      5.47599327e-03 3.72808776e-03 -6.04776549e-04 -4.28635860e-03
      -4.01076255e-03 -5.81695046e-03 1.38844457e-03 1.05112442e-03
      1.67295721e-03 3.60348262e-03 4.37848689e-03 4.95505426e-03
      8.79698258e-04 -2.49929354e-03 -5.56218065e-03 -1.96604338e-03
      -3.94592108e-03 -2.59271567e-03 1.87043392e-03 2.42666178e-03
      8.31351033e-04 1.07740844e-03 -5.42557146e-03 -6.74905395e-03
      1.60125695e-04 -2.07814504e-03 1.59243552e-03 4.25201608e-03
      5.28349401e-03 4.39241703e-04 -2.47815601e-03 -3.67623894e-03
      -1.75781141e-03 -1.08462281e-03 -2.58279429e-03 -9.20037099e-04
      5.76018821e-04 -7.65448378e-04 -7.12507317e-05 6.89185399e-05
      1.89257460e-03 -1.35514696e-04 -2.57403101e-03 -6.67179562e-03
      -6.23552129e-03 2.11002282e-03 2.56184814e-03 1.14639108e-04
      1.71352422e-03 -2.31703045e-03 -6.16328837e-03 -2.68227974e-04
      -3.24551458e-03 -3.77547764e-03 5.62817929e-03 1.78586156e-03
      2.80534499e-03 4.09701839e-03 6.40230952e-03 3.07606068e-03
      3.77318170e-03 2.76740873e-03 2.74656457e-03 3.28763365e-03
      2.29723728e-03 -1.60929514e-03 4.07819316e-04 -4.11032373e-03
      -9.76649811e-04 -4.94835060e-03 -3.02568218e-03 -5.09854732e-03
      -4.45700809e-03 5.54121751e-03 5.29099954e-03 5.59818046e-03
      -5.97384386e-03 -6.79080188e-03 6.91908598e-03 7.60132913e-03
      5.78202633e-03 6.67490996e-03 1.49777671e-03 -1.11821291e-05
      5.49472868e-03 3.51404375e-03 3.95223219e-03 2.72578816e-03
      -2.33463850e-03 -3.44221294e-03 -4.86295624e-03 2.99973693e-03
      -2.99938791e-03 5.74774109e-03 7.61223142e-04 3.35086789e-03
      -5.36218937e-03 -7.13981641e-03 -4.53848066e-03 -4.01405385e-03
      7.63757341e-03 1.00119952e-02 5.75567130e-03 -6.28203899e-03
      -2.92849611e-03 -7.38370279e-03 -1.20667471e-02 -6.83627091e-03
      -3.14102904e-03 1.32791251e-02 9.41077154e-03 6.42204750e-03
      -8.30998411e-04 -1.83486566e-03 -1.83432305e-04 -6.43324852e-03
      -5.85563853e-03 -3.31483176e-03 6.28118124e-03 4.56153788e-03
      4.87572933e-03 3.83679813e-04 2.91932235e-03 2.19385838e-04
      -6.28645951e-03 -4.73076990e-03 2.73367041e-04 1.15622710e-02
      5.29192854e-03 6.50799554e-03 1.85348280e-03 4.38710302e-03
      -6.09004591e-03 -1.09560005e-02 -6.58445433e-03 -4.88745747e-03
      1.01113608e-02 6.40421035e-03 8.58055707e-03 2.72345776e-03
      1.76181260e-04 -4.08117333e-03 -9.71720275e-03 -8.35884362e-03
      -8.12130421e-03 5.40470064e-04 -5.79526974e-03 -3.88777838e-03
      -3.67392320e-03 1.64713070e-03 -7.76012777e-04 -8.62443913e-03
      -6.22657733e-03 -6.04895130e-03 6.94249431e-03 7.08156126e-03
      9.15438216e-03 9.75053571e-03 3.19050648e-03 1.31937151e-03
      -9.87759046e-03 -8.38169362e-03 -6.97748875e-03 9.30661976e-04
      1.54251431e-03 7.97555037e-03 1.09252399e-02 3.73221282e-03
      3.11074127e-03 -2.08165788e-04 -3.34841292e-03 -9.82941245e-04
      2.18367297e-03 -4.52096947e-03 -3.86760291e-03 -3.35681206e-03
      3.61875747e-03 4.42670519e-03 4.00305912e-03 1.60430232e-03
      2.02428270e-03 4.35727416e-03 -8.29805434e-03 -2.15926906e-03
      6.36841170e-04 1.61214732e-03 4.42856085e-03 -4.17914568e-03
      -7.47485505e-03 -4.77676187e-03 2.41412083e-03 -4.15404281e-03
      9.32129566e-04 7.32257403e-03 6.67724246e-03 6.05672225e-03
      -1.77850830e-03 -7.33533525e-04 -1.80178043e-03 2.95347604e-03
      -3.67516489e-03 2.59587495e-03 4.72696684e-03 5.63975656e-03
      1.12187560e-03 3.46028176e-03 3.79691506e-03 1.22038729e-03
      2.90909549e-03 -6.70289109e-03 -4.24272148e-03 -9.68906039e-04
      9.00710351e-04 9.34585987e-04 5.20792557e-03 2.47962936e-03
      1.64422044e-03 7.44411349e-03 1.97829725e-03 6.01685490e-04
      -2.16472498e-03 3.34739732e-03 4.52882331e-03 1.86855963e-04
      2.28850241e-03 -6.63851039e-04 4.86266363e-04 -3.15647898e-03
      -2.86995014e-03 2.21482245e-03 5.05418889e-03 2.95813615e-03
      2.01712106e-03 3.69668915e-03 1.61274849e-03 6.37044152e-03
      1.66093069e-03 1.68525334e-03 9.60702891e-05 1.75474852e-03
      -2.93321954e-03 4.05787630e-03 3.46623547e-03 2.33387481e-03
      6.46677939e-03 2.39071669e-03 -2.14880425e-03 -2.42641498e-03
      -2.61722109e-03 -5.57946798e-04 5.06387465e-03 6.37576729e-03
      2.65390542e-03 5.16506238e-03 2.72498676e-03 2.05338909e-03
      3.78636364e-03 -3.19228927e-03 1.44094846e-03 3.01179313e-03
      4.12207749e-03 -6.35997334e-04 3.05980258e-03 1.20701373e-03
      -1.13783358e-03 1.53649028e-03 -4.28335834e-03 2.43355823e-03
      7.07640732e-03 7.71858171e-03 6.66774926e-04 -1.85562822e-03
      7.92276871e-04 -3.32834967e-03 1.92292070e-03 -5.45642013e-03
      -4.61423444e-03 -1.46260241e-03 1.65175041e-03 -4.02936654e-04
      3.44171165e-03 8.09130259e-04 2.04167934e-03 5.59166493e-03
      -4.28437768e-03 -5.33742597e-03 -6.73460215e-03 -1.64059701e-03
      -2.75688508e-04 3.65334199e-05 1.08530885e-03 3.55634815e-03
      4.94232075e-03 -2.99944892e-03 -2.77948675e-05 3.66427191e-03
      3.92341241e-03 2.29423353e-03 -1.47543359e-03 1.80437870e-03
      -2.16742465e-03 2.27855425e-03 -2.23324494e-03 -2.68099760e-03
      2.04427540e-03 -1.04580517e-03 1.36239731e-04 -1.54709443e-03
      1.57018565e-03 1.82363752e-03 -1.06284081e-03 3.60390334e-03
      -5.06676687e-03 -5.97937079e-03 -3.86914657e-03 -2.04377389e-03
      -1.02058938e-03 7.92364997e-04 2.93401140e-03 2.60318816e-03
      -2.04035337e-03 -5.13124792e-03 -2.39011738e-03 -2.99441093e-03
      -2.74899678e-04 1.21483533e-03 4.17182368e-04 -2.56286701e-04
      9.59038909e-04 7.15085596e-04 5.74037782e-04 4.67080530e-03
      4.43268800e-04 -7.73086504e-04 -1.77800620e-03 -2.44621351e-05
      2.92968150e-04 -3.37030482e-03 3.03385500e-03 2.22810241e-03
      3.16961645e-03 3.57121113e-03 9.80826328e-04 1.01042166e-03
      6.49405993e-04 -1.56430271e-03 -2.93840858e-04 2.16187094e-03
      5.42456808e-04 3.76546266e-03 2.91743968e-03 2.46196659e-03
      2.20987899e-03 9.83717851e-04 -3.05739325e-03 3.55935626e-04
      2.23955046e-03 4.58377367e-03 1.06700379e-02 9.10220575e-03
      1.99264567e-03 3.55513650e-03 1.04073748e-04 -1.93854468e-03
      -3.27257393e-03 1.13311782e-03 -6.14921504e-04 4.94163577e-03
      5.28709311e-03 8.15737119e-04 4.31441003e-03 -1.27479830e-03
      -1.99016114e-03 -1.30488814e-04 2.18281013e-04 -1.15433289e-03
      2.04097552e-04 1.73927972e-03 3.84057942e-03 4.29637078e-03
      -3.04289977e-03 1.39354655e-04 -7.76975648e-04 -1.64775876e-03
      3.95363569e-03 7.92449526e-03 8.00740719e-03 3.73615487e-03
      5.38734673e-03 -5.56158891e-04 -3.64838983e-03 -4.54162667e-03
      1.66595180e-03 3.03232810e-03 3.43921383e-05 -1.20317726e-03
      5.28432569e-03 6.05340721e-03 3.48452642e-03 1.29517366e-03
      -1.26398529e-03 2.07526679e-03 -2.65797530e-03 -1.04813406e-03
      1.58916344e-03 6.38618506e-03 5.06751053e-03 1.61257936e-04
      -2.15764670e-03 -1.58336246e-04 4.40067006e-03 -4.19325382e-03
      -1.27006660e-03 4.26155375e-03 8.04580282e-03 6.42618490e-03
      5.52763464e-03 2.26297183e-03 2.48905108e-03 1.95470103e-03
      3.09668644e-03 8.88974115e-04 -1.26609579e-03 1.63460639e-03
      7.34646292e-03 6.94515230e-03 5.27468137e-03 5.06394962e-03
      3.44145647e-03 1.85662031e-03 8.21461785e-04 -7.93082733e-03
      -9.67285503e-03 -3.15989787e-03 4.99866949e-03 2.59108795e-03
      4.43551270e-03 2.65590893e-03 -3.07416107e-04 -9.52296599e-04
      1.46827125e-03 2.88485247e-03 2.45277421e-03 5.22990106e-03
      4.30173101e-03 2.63510388e-03 4.25768504e-03 2.21571745e-03
      6.75504515e-03 9.10156523e-04 -2.33977661e-03 -3.51647171e-03
      1.02228532e-03 -2.65748031e-03 2.04110495e-03 4.26922925e-03
      7.05041166e-04 -8.58821295e-05 -7.41224084e-03 -8.52355268e-03
      -4.74736793e-03 2.52186554e-03 -2.41712038e-03 -2.85770482e-04
      1.64313603e-03 1.41102576e-03 7.14554777e-03 8.04095250e-03
      5.94920246e-03 4.22363589e-03 2.17816746e-03 -1.34105328e-03
      -3.96718876e-03 8.03064904e-04 3.50224110e-03 9.59920045e-03
      7.54831918e-03 -5.17193275e-03 -2.28247675e-03 -1.64020783e-03
      -1.15421065e-03 4.92615975e-04 2.58471677e-03 1.57250336e-03
      1.08256117e-02 1.08711496e-02 5.21877827e-03 7.16458494e-03
      2.34833779e-03 -2.06516217e-03 -5.17228199e-03 -9.20825812e-04
      1.03006838e-03 8.57218541e-03 7.20288651e-03 8.61851126e-03
      3.48749082e-03 -2.51488731e-04 -6.41136244e-03 -9.47750732e-03
      -5.53402910e-03 8.77833983e-04 4.61692968e-03 2.94877635e-03
      3.30169429e-03 4.10147151e-03 1.93617784e-03 -2.12285179e-03
      -8.83806776e-03 -6.69499999e-03 -1.42768549e-03 4.81909048e-03
      5.61002921e-03 3.29426443e-03 3.36021720e-03 -3.13785451e-04
      -8.06840602e-03 -9.27185360e-03 -5.47832483e-03 -8.42921785e-04
      -3.15642008e-03 -2.82148458e-03 -3.66753829e-03 2.39198469e-03
      -1.02721725e-03 -2.74885749e-03 -5.80735272e-03 -4.22277069e-03
      2.82142684e-03 1.17988291e-03 3.27499874e-04 -7.89232436e-04
      4.92912205e-03 2.65100668e-03 1.20832247e-03 -4.62954026e-03
      -2.94666272e-03 1.39321177e-03 -6.12144871e-03 -5.11681428e-03
      3.74510558e-03 5.60690835e-03 1.72904099e-03 4.21842746e-03
      -1.87673001e-03 -3.81243136e-03 2.41090194e-03 -8.42277613e-03
      -7.59378215e-03 -4.10010712e-03 4.68292320e-03 2.85209069e-04
      3.92154930e-03 -6.93294918e-04 -6.91926689e-05 5.83555084e-03
      7.24206911e-04 5.92134311e-04 4.58591897e-03 5.96173527e-03
      2.07168423e-03 3.94306425e-03 5.33826649e-04 5.18272212e-03
      -1.04253152e-02 -1.32253123e-02 -9.95088462e-03 3.44001292e-03
      1.31597137e-03 2.28051955e-04 2.91297445e-03 -3.63280927e-03
      -1.15042059e-02 -6.16419036e-03 -4.15125722e-03 -4.99995134e-04
      1.15978271e-02 5.82512515e-03 1.73610775e-03 3.84449307e-03
      3.60680744e-03 3.69133631e-05 2.52719503e-03 2.81020696e-03
      4.75402782e-03 1.07310107e-02 3.63037223e-03 8.32739810e-04
      1.67493138e-03 -9.80384299e-04 -2.84417561e-04 6.64589927e-03
      1.00928722e-02 9.64931119e-03 1.11587336e-02 8.84603988e-03
      1.95861096e-03 2.10715178e-03 -1.84091635e-03 8.52159283e-04
      6.57007145e-03 6.32183813e-03 3.05486354e-03 5.02734445e-03
      4.64206445e-04 -2.73966958e-04 3.53018433e-04 6.14668068e-04
      4.12624236e-03 4.14738571e-03 -2.08002026e-03 -4.80302330e-03
      -6.22239243e-03 -3.45944514e-04 -9.69691109e-03 -4.19221679e-03
      -1.55394594e-03 4.76477342e-03 6.16994780e-03 6.06597774e-03
      1.60216028e-03 -1.54152734e-03 4.43550711e-03 4.98582260e-04
      4.94432636e-03 3.40098981e-03 2.20359513e-03 4.66823950e-03
      4.86986339e-03 3.32119339e-03 -1.83460477e-04 1.88965700e-03
      -8.76104459e-03 -6.31923601e-03 -3.69492476e-03 2.73348484e-03
      -6.04168381e-05 -4.57136612e-03 -5.67062339e-03 -1.93500251e-03
      6.27445616e-03 -2.29249708e-03 1.30768036e-04 -5.39773260e-04
      1.37186679e-03 1.06206455e-03 -2.28108256e-03 -3.14459205e-03
      2.74829217e-03 3.40267946e-03 -6.92291185e-04 3.38936527e-03
      1.49224757e-03 1.50510250e-03 1.78650056e-03 2.74662953e-03
      3.32417735e-03 3.16536007e-03 7.86697119e-03 -2.97532440e-03
      -5.95421437e-03 -4.93852329e-03 -8.04323936e-04 1.80687313e-03
      1.23241812e-03 2.64522876e-03 2.52033002e-03 2.04559788e-03
      -3.13065224e-03 -4.45054087e-04 -6.50434231e-04 -3.39508377e-04
      2.25596968e-03 -7.32009020e-03 -5.54454280e-03 -3.07821599e-03
      3.20682325e-03 2.69462331e-03 7.89890997e-03 9.33160633e-03
      3.19265481e-03 3.56992474e-03 -8.32923222e-03 -1.14272870e-02
      -5.23227034e-03 2.06908863e-03 2.60943267e-03 8.89279228e-03
      1.02377478e-02 3.39203957e-03 1.86611665e-03 -4.39766794e-03
      -5.05039049e-03 -4.13291622e-03 7.69737351e-04 -1.37501489e-03
      9.43104737e-03 5.68556925e-03 2.43443344e-03 -1.01232203e-03
      -9.48783197e-03 -1.16950022e-02 -7.02342903e-03 -1.54935557e-03
      1.93262100e-03 1.29424157e-02 1.13387341e-02 5.73488604e-03
      3.79695254e-03 -7.01717334e-03 -1.11324592e-02 -5.98825701e-03
      4.04810626e-03 -5.08727506e-04 7.19602266e-03 9.77369677e-03
      5.87973883e-03 3.55496514e-03 -4.85909451e-03 -7.15676555e-03
      -4.44236817e-03 2.01993668e-03 -1.03674631e-03 3.28769814e-03
      4.10962617e-03 6.44962490e-03 1.81922561e-03 -9.44914576e-03
      -1.29889185e-02 -5.92521019e-03 3.96259502e-03 4.28239722e-03
      1.22647304e-02 1.10866176e-02 9.74754337e-03 3.78058129e-03
      -4.96193627e-03 -9.35010239e-03 -6.63884310e-03 1.87746854e-03
      1.49175653e-03 9.31294635e-03 8.26058723e-03 9.62726958e-03
      5.26252901e-03 -2.74322019e-03 -8.92174779e-04 -6.05248439e-04
      1.97158195e-03 1.52476016e-04 -2.00385042e-03 3.43234837e-03
      6.77609863e-03 6.59225136e-03 -8.39156710e-05 5.88692666e-04
      -1.12748751e-03 3.37388413e-03 1.37888244e-03 -1.29421812e-03
      2.49674311e-03 4.72038472e-03 7.12242117e-03 -3.75715480e-03
      -5.49299084e-03 -3.23630916e-03 1.26262510e-03 1.48407090e-03
      4.18323465e-03 5.14088990e-03 9.51721519e-03 4.68590623e-03
      -2.42951093e-03 -1.49386225e-03 -4.45499085e-03 2.09929980e-03
      1.33100187e-03 -7.43454584e-05 2.92672450e-03 5.29406313e-03
      5.44884615e-03 2.44132779e-03 3.14517342e-03 -2.44381186e-03
      6.04590692e-04 1.34265970e-03 1.45774288e-03 5.06245298e-03
      5.26351761e-03 8.32123030e-03 6.35793619e-03 6.03825925e-03
      -8.77076644e-04 -9.50914342e-04 1.12541369e-03 2.06471072e-03
      7.29855150e-03 6.87214453e-03 -1.59010210e-03 6.44064276e-04
      1.52208819e-03 -2.71372451e-03 -1.21572649e-03 1.18916819e-03
      -3.52766411e-03 -1.95365236e-03 -2.13741674e-03 -1.76179665e-03
      2.11408758e-03 2.58996710e-03 -6.18524733e-04 -4.83145443e-04
      2.77249230e-04 -8.16432526e-04 1.68231328e-03 -1.96431135e-03
      5.14378818e-03 6.15193509e-03 2.54608085e-03 2.06848769e-03
      -5.35441656e-03 -1.26460288e-03 -1.58150471e-03 3.21885664e-03
      9.53033392e-04 1.10999565e-03 6.73982548e-03 3.19319079e-03
      2.29377602e-03 -3.16847418e-03 4.65985649e-04 -1.59137545e-03
      -2.43779947e-03 7.17714953e-04 -1.24235125e-03 2.84372573e-03
      1.89450558e-03 -5.78337291e-04 -3.41281109e-03 -1.02755730e-03
      -4.87196958e-03 -1.85957679e-03 -2.32943450e-03 4.14856244e-03
      3.08626145e-03 4.30814456e-03 8.56645755e-04 -1.05510431e-03
      -4.53779910e-04 -4.43298928e-03 -1.27869239e-03 9.49778361e-04
      3.92376154e-04 6.94782287e-03 4.66244575e-03 4.21921071e-03
      -3.88471293e-04 -2.00849934e-03 -3.25698289e-03 -1.66783447e-03
      -6.54392585e-04 -2.64180009e-04 3.46558494e-03 5.62403165e-03
      5.28109306e-03 3.68436426e-03 9.49796289e-04 -1.95761304e-03
      2.22821545e-04 1.26053012e-04 2.57855491e-03 4.88198316e-03
      5.06614149e-03 4.53073019e-03 -1.06649462e-03 -3.92329693e-03
      -2.90190335e-03 -4.92348394e-04 2.62675403e-05 1.29830313e-03
      1.86234340e-03 5.00257174e-03 5.19115385e-03 1.97122688e-03
      -2.32403656e-03 -1.25796988e-03 -8.07340199e-04 6.87759544e-04
      -1.33601646e-03 2.59913411e-03 4.23178030e-03 3.30262166e-03
      4.68286965e-03 -4.45938262e-04 -2.38765482e-04 9.43769643e-04
      -4.81375726e-04 -1.34984509e-03 5.10299695e-04 1.06161897e-04
      2.77400203e-03 4.67861863e-03 -3.25634563e-03 1.20884413e-03
      -2.11039616e-04 8.38422508e-04 2.06520990e-03 3.52936634e-03
      3.77122313e-03 3.72740533e-03 5.24026901e-03 -3.58425849e-03
      -1.32180389e-03 -5.62645379e-04 1.88317359e-03 -8.38720007e-04
      2.21252861e-03 2.43795570e-03 1.70529506e-03 6.15723024e-04
      -4.11019195e-03 -3.10455868e-03 5.91337666e-05 2.20421562e-03
      -9.40119440e-04 -4.98698755e-05 -1.62625802e-04 4.40678839e-03
      6.47841813e-03 2.00625494e-04 -1.57476476e-04 1.56298513e-03
      4.43708943e-03 -1.51306123e-03 -8.28903809e-04 2.96019786e-03
      5.18339407e-03 5.11176605e-03 2.51748250e-03 -8.46668438e-04
      2.82504573e-03 3.71393235e-03 1.29096501e-04 1.73149607e-03
      3.72659205e-03 2.69196928e-03 2.81996303e-03 -2.39765830e-03
      -4.87544527e-03 5.85571455e-04 3.43262241e-03 2.32615788e-03
      1.79965375e-03 2.89222598e-03 6.94659771e-03 2.59739254e-03
      -3.91753187e-04 -4.38182522e-03 -1.13282271e-03 6.10383274e-03
      -8.50260840e-04 2.81373877e-03 2.58248090e-03 7.22662022e-04
      4.90918115e-04 -1.75071624e-03 -5.21682389e-03 -1.19513553e-03
      2.03054515e-03 4.96837310e-03 7.81749934e-03 6.75479323e-03
      -1.11891038e-03 2.49697739e-04 -1.96031621e-03 -4.18812095e-04
      -7.51425454e-04 5.88156050e-03 6.95673982e-03 6.59206603e-03
      4.04231297e-03 -3.02245549e-04 1.19141652e-03 -1.67890044e-03
      -4.17900458e-03 -2.06487905e-03 3.99790565e-03 8.41903314e-03
      6.14094734e-03 2.45937123e-03 -1.77375507e-03 1.85341621e-03
      -3.71900783e-03 1.01282075e-03 -2.98483996e-03 4.38226946e-03
      5.24031743e-03 7.83709995e-03 5.74107980e-03 -1.23508275e-04
      -6.03686261e-04 -4.59942268e-03 -4.14691662e-04 -2.78694974e-03
      4.51137684e-03 3.04469396e-03 1.10644531e-02 1.17614819e-02
      4.66469070e-03 8.02203175e-03 4.96647321e-04 -3.84953781e-03
      -8.21529515e-03 -3.35201970e-04 7.17750099e-03 6.34772889e-03
      4.08284832e-03 -3.76844779e-03 7.03411701e-04 -5.07444236e-03
      -2.04304117e-03 -6.20126491e-03 4.40710457e-03 6.14432851e-03
      7.91772921e-03 5.83438156e-03 4.39472217e-03 6.26667077e-03
      1.22173608e-03 -3.52911954e-03 -7.07366737e-03 1.09167537e-03
      1.93331728e-03 8.26684944e-03 6.78920886e-03 2.66934233e-03
      2.11120723e-03 -8.19387147e-04 -6.33706013e-03 -8.52830149e-03
      -2.78507126e-03 4.00576647e-03 -3.18685197e-03 -1.67047768e-03
      -4.91468329e-03 1.79408304e-03 -1.08238927e-03 -1.91606363e-04
      -1.60709012e-03 2.09778867e-04 4.15438740e-03 7.81937968e-03
      3.73382797e-03 2.96665053e-03 -4.43837635e-04 -3.69125674e-03
      -6.03567250e-03 -6.96231425e-03 -2.11924245e-03 5.97114256e-03
      5.01035666e-03 2.95955385e-03 -2.13682884e-03 -1.90339319e-03
      -2.56228703e-03 -1.74575264e-03 -1.99954142e-03 3.16916872e-03
      5.20557119e-03 -8.31244327e-03 -8.06973316e-03 -9.71054565e-03
      -4.12674341e-03 -1.69423991e-03 -4.45754677e-06 -2.99356924e-03
      1.42253248e-03 6.93732593e-03 1.59471354e-03 -6.97579642e-04
      8.06349708e-05 3.13368556e-03 1.18097092e-03 1.46412267e-03
